svm_type c_svc
kernel_type linear
nr_class 2
total_sv 8
rho -0.246218
label 1 0
nr_sv 5 3
SV
8.094934394832223e-09 44:1 61:6 63:1 64:1 78:3 79:1 82:1 83:2 86:47 87:56 93:8 94:64 95:203 109:42 110:61 111:2 116:34 117:162 118:213 119:181 121:4 122:2 123:6 124:67 125:63 126:213 127:213 128:9 184:1 189:42 190:10 203:1 206:14 207:9 211:1 214:48 215:107 221:86 222:94 223:162 229:3 230:2 236:4 237:82 238:178 239:26 243:1 244:56 245:98 246:191 247:191 249:39 250:13 251:6 252:22 253:18 254:191 255:191 256:36 309:5 317:75 318:34 319:13 320:4 326:1 331:1 334:26 335:33 341:7 342:44 343:141 346:1 349:168 350:163 351:89 352:2 357:19 358:29 359:1 364:20 365:86 366:168 367:107 369:3 370:2 371:4 372:44 373:40 374:168 375:168 376:7 377:87 378:54 379:4 380:3 381:25 382:125 383:168 384:46 437:37 438:9 445:51 446:44 447:46 448:29 454:7 455:5 462:30 463:71 469:79 470:81 471:127 473:28 474:19 475:2 476:1 477:156 478:156 479:63 480:39 484:2 485:42 486:95 487:14 491:1 492:36 493:59 494:156 495:156 497:35 498:11 499:5 500:16 501:14 502:148 503:156 504:31 505:98 506:150 507:6 508:1 509:36 510:77 511:80 512:22 557:4 565:69 566:33 567:14 568:4 569:8 573:11 574:19 575:56 576:64 582:15 583:20 589:6 590:32 591:102 594:2 597:143 598:143 599:77 600:2 601:123 602:45 603:2 604:1 605:79 606:72 607:59 608:99 612:12 613:48 614:143 615:65 617:3 618:1 619:3 620:29 621:26 622:143 623:143 624:6 625:82 626:55 627:4 628:2 629:25 630:112 631:143 632:41 633:95 634:143 635:5 636:1 637:18 638:20 639:4 640:3 685:34 686:8 693:49 694:44 695:51 696:34 697:19 702:1 703:26 704:60 710:19 711:48 717:73 718:71 719:100 721:35 722:23 723:2 724:1 725:139 726:139 727:66 728:47 729:139 730:41 733:4 734:9 735:26 736:92 740:24 741:36 742:139 743:139 745:33 746:10 747:4 748:11 749:11 750:118 751:139 752:27 753:101 754:139 755:6 756:2 757:37 758:74 759:72 760:21 761:91 762:136 763:1 765:1 805:4 813:68 814:35 815:16 816:5 817:11 821:12 822:21 823:68 824:83 825:15 831:2 832:23 837:5 838:25 839:81 842:2 845:137 846:137 847:73 848:2 849:137 850:58 851:2 852:1 853:87 854:81 855:71 856:129 857:112 858:15 863:1 864:32 865:2 866:1 867:2 868:22 869:18 870:133 871:137 872:5 873:84 874:60 875:4 876:2 877:26 878:110 879:137 880:39 881:121 882:137 883:6 884:1 885:20 886:21 887:5 888:4 889:47 890:38 933:35 934:9 937:1 941:53 942:50 943:64 944:45 945:29 950:1 951:35 952:85 953:3 960:1 965:76 966:70 967:90 969:49 970:30 971:3 972:1 973:144 974:144 975:80 976:63 977:144 978:58 979:1 981:5 982:11 983:34 984:130 985:16 986:1 992:1 993:34 994:10 995:3 996:9 997:10 998:106 999:144 1000:27 1001:119 1002:144 1003:8 1004:2 1005:43 1006:81 1007:73 1008:22 1009:132 1010:144 1011:2 1013:1 1016:1 1017:6 1018:2 1061:71 1062:38 1063:19 1064:6 1065:17 1069:13 1070:24 1071:85 1072:111 1073:24 1079:4 1080:33 1090:3 1091:1 1093:139 1094:139 1095:72 1096:3 1097:139 1098:78 1099:3 1100:1 1101:98 1102:93 1103:89 1104:139 1105:139 1106:21 1111:1 1112:45 1121:89 1122:68 1123:4 1124:2 1125:29 1126:111 1127:139 1128:39 1129:139 1130:139 1131:8 1132:2 1133:22 1134:24 1135:5 1136:4 1137:69 1138:55 1196:1 1203:1 1206:1 1207:2 1213:7 1214:4 1215:10 1229:4 1230:22 1231:2 1237:16 1238:162 1239:123 1245:6 1246:162 1247:162 1248:2 1261:77 1262:45 1267:6 1268:99 1269:162 1270:162 1271:52 1273:7 1274:9 1275:66 1276:162 1277:91 1278:162 1279:162 1280:8 1309:4 1310:1 1334:1 1335:5 1341:59 1342:18 1343:7 1357:9 1358:74 1359:20 1365:9 1366:148 1367:148 1369:3 1373:27 1374:145 1375:148 1376:9 1381:5 1382:3 1388:13 1389:148 1390:110 1391:6 1395:23 1396:148 1397:148 1398:148 1399:127 1401:63 1402:42 1403:69 1404:86 1405:20 1406:74 1407:148 1408:29 1437:7 1438:4 1439:1 1455:1 1461:6 1462:3 1463:7 1469:124 1470:54 1471:15 1472:2 1477:2 1478:11 1479:1 1485:9 1486:123 1487:76 1493:4 1494:132 1495:132 1496:1 1497:10 1498:13 1499:1 1501:83 1502:132 1503:132 1504:14 1509:38 1510:22 1515:3 1516:61 1517:132 1518:132 1519:32 1521:6 1522:8 1523:50 1524:132 1525:60 1526:132 1527:132 1528:7 1529:132 1530:86 1531:32 1532:12 1533:1 1534:21 1535:118 1536:33 1557:4 1558:1 1565:4 1566:5 1567:6 1568:4 1582:1 1583:3 1589:57 1590:17 1591:6 1593:7 1597:111 1598:75 1599:51 1600:36 1605:5 1606:42 1607:12 1613:6 1614:129 1615:129 1617:3 1621:26 1622:126 1623:129 1624:9 1625:36 1626:70 1627:5 1628:2 1629:107 1630:127 1631:61 1632:16 1636:8 1637:83 1638:62 1639:4 1643:17 1644:122 1645:98 1646:129 1647:91 1649:61 1650:39 1651:58 1652:66 1653:15 1654:58 1655:129 1656:26 1657:129 1658:124 1659:6 1662:8 1663:28 1664:16 1685:7 1686:4 1687:2 1694:1 1695:7 1696:8 1709:5 1710:3 1711:5 1717:122 1718:57 1719:17 1720:3 1721:41 1722:2 1725:35 1726:39 1727:66 1728:90 1733:5 1734:78 1735:51 1741:3 1742:103 1743:122 1744:1 1745:11 1746:16 1747:1 1748:1 1749:89 1750:122 1751:122 1752:14 1753:105 1754:122 1755:5 1756:2 1757:48 1758:44 1759:12 1760:25 1763:2 1764:41 1765:89 1766:94 1767:22 1769:5 1770:7 1771:41 1772:113 1773:43 1774:101 1775:122 1776:6 1777:122 1778:90 1779:29 1780:10 1781:1 1782:20 1783:108 1784:32 1785:93 1786:116 1787:1 1790:2 1791:1 1792:3 1805:4 1806:1 1813:4 1814:5 1815:7 1816:5 1817:1 1823:3 1824:7 1831:2 1837:57 1838:17 1839:5 1841:10 1845:117 1846:83 1847:62 1848:46 1849:75 1850:2 1853:1 1854:4 1855:32 1856:88 1861:3 1862:91 1863:123 1865:4 1869:26 1870:114 1871:123 1872:8 1873:45 1874:87 1875:6 1876:2 1877:117 1878:123 1879:61 1880:19 1881:123 1882:104 1883:1 1885:3 1886:4 1887:4 1888:22 1891:13 1892:87 1893:64 1894:103 1895:67 1897:61 1898:38 1899:50 1900:51 1901:11 1902:47 1903:123 1904:25 1905:123 1906:123 1907:6 1909:1 1910:9 1911:27 1912:16 1913:47 1914:65 1933:7 1934:5 1935:2 1936:1 1942:2 1943:9 1944:11 1945:1 1952:3 1957:5 1958:2 1959:4 1965:123 1966:64 1967:20 1968:4 1969:61 1970:2 1973:40 1974:46 1975:85 1976:123 1977:50 1978:1 1983:2 1984:32 1989:2 1990:82 1991:123 1992:1 1993:12 1994:19 1995:2 1996:1 1997:99 1998:123 1999:123 2000:14 2001:123 2002:123 2003:6 2004:2 2005:56 2006:51 2007:15 2008:33 2009:84 2010:33 2016:6 2017:5 2018:7 2019:35 2020:89 2021:32 2022:79 2023:123 2024:6 2025:123 2026:98 2027:27 2028:8 2029:1 2030:19 2031:103 2032:32 2033:117 2034:123 2035:2 2038:2 2039:1 2040:3 2041:17 2042:16 2053:4 2054:1 2061:5 2062:6 2063:9 2064:7 2065:1 2071:5 2072:10 2085:59 2086:18 2087:4 2089:14 2090:1 2093:127 2094:96 2095:78 2096:62 2097:112 2098:3 2101:1 2102:5 2103:42 2104:125 2105:9 2112:2 2113:4 2117:28 2118:110 2119:127 2120:9 2121:59 2122:113 2123:7 2124:3 2125:127 2126:127 2127:64 2128:24 2129:127 2130:127 2131:2 2133:4 2134:5 2135:5 2136:31 2137:11 2138:2 2145:63 2146:39 2147:45 2148:42 2149:9 2150:40 2151:127 2152:24 2153:127 2154:127 2155:7 2157:1 2158:9 2159:27 2160:17 2161:66 2162:89 2168:1 2169:1 2170:1 2181:8 2182:6 2183:3 2184:1 2190:2 2191:12 2192:15 2193:1 2200:4 2213:129 2214:73 2215:25 2216:5 2217:90 2218:4 2221:46 2222:55 2223:111 2224:129 2225:78 2226:1 2231:3 2232:49 2241:14 2242:24 2243:2 2244:1 2245:111 2246:129 2247:129 2248:15 2249:129 2250:129 2251:8 2252:3 2253:67 2254:60 2255:19 2256:46 2257:128 2258:50 2264:10 2273:129 2274:109 2275:26 2276:7 2277:1 2278:19 2279:100 2280:33 2281:129 2282:129 2283:2 2286:2 2287:1 2288:4 2289:26 2290:24 2333:2 2350:2 2355:1 2358:29 2359:34 2365:4 2366:39 2367:124 2381:32 2382:42 2383:1 2388:28 2389:123 2390:169 2391:118 2393:3 2394:2 2395:5 2396:54 2397:48 2398:169 2399:169 2400:6 2413:84 2414:38 2418:8 2419:18 2420:114 2421:169 2422:76 2423:1 2425:4 2426:24 2427:169 2428:169 2429:46 2430:40 2431:24 2432:2 2461:20 2462:4 2478:9 2479:6 2486:31 2487:69 2493:46 2494:57 2495:105 2501:2 2502:2 2508:3 2509:66 2510:129 2511:17 2515:1 2516:48 2517:79 2518:155 2519:155 2521:31 2522:10 2523:5 2524:19 2525:13 2526:132 2527:155 2528:27 2533:7 2534:4 2540:16 2541:151 2542:53 2546:13 2547:71 2548:155 2549:99 2550:48 2551:8 2553:42 2554:61 2555:155 2556:132 2557:10 2558:13 2559:24 2560:8 2581:2 2589:38 2590:17 2591:6 2592:1 2598:1 2606:18 2607:22 2613:3 2614:30 2615:96 2618:1 2621:122 2622:101 2623:59 2624:1 2629:16 2630:22 2636:18 2637:73 2638:142 2639:77 2641:3 2642:2 2643:4 2644:39 2645:33 2646:142 2647:142 2648:6 2649:73 2650:44 2651:3 2652:2 2653:16 2654:86 2655:142 2656:36 2661:44 2662:19 2666:5 2667:12 2668:74 2669:127 2670:44 2671:1 2673:3 2674:19 2675:142 2676:142 2677:32 2678:29 2679:19 2680:2 2681:112 2682:101 2683:117 2684:25 2686:1 2687:10 2688:10 2709:20 2710:4 2717:28 2718:23 2719:24 2720:15 2726:5 2727:3 2734:22 2735:51 2741:47 2742:54 2743:91 2745:18 2746:14 2747:1 2749:132 2750:105 2751:38 2752:23 2756:2 2757:38 2758:76 2759:11 2763:1 2764:34 2765:52 2766:136 2767:136 2769:31 2770:10 2771:4 2772:15 2773:11 2774:113 2775:136 2776:26 2777:84 2778:121 2779:4 2780:1 2781:24 2782:54 2783:61 2784:18 2788:10 2789:85 2790:29 2794:9 2795:54 2796:136 2797:64 2798:32 2799:6 2801:43 2802:59 2803:136 2804:107 2805:8 2806:11 2807:21 2808:8 2809:136 2810:87 2811:31 2812:1 2815:1 2816:6 2829:2 2837:38 2838:18 2839:7 2840:2 2841:4 2845:6 2846:11 2847:31 2848:36 2854:11 2855:15 2861:3 2862:23 2863:76 2866:1 2869:127 2870:105 2871:56 2872:1 2873:82 2874:33 2875:1 2877:52 2878:47 2879:34 2880:60 2884:12 2885:44 2886:127 2887:52 2889:2 2890:1 2891:3 2892:29 2893:24 2894:127 2895:127 2896:5 2897:76 2898:48 2899:3 2900:2 2901:17 2902:84 2903:127 2904:35 2905:78 2906:127 2907:4 2908:1 2909:12 2910:15 2911:3 2912:2 2914:3 2915:9 2916:50 2917:75 2918:26 2921:3 2922:16 2923:123 2924:127 2925:23 2926:21 2927:16 2928:2 2929:117 2930:103 2931:107 2932:21 2934:1 2935:9 2936:9 2937:98 2938:43 2939:3 2944:3 2957:20 2958:5 2965:29 2966:26 2967:29 2968:20 2969:11 2975:15 2976:35 2982:15 2983:37 2989:47 2990:52 2991:79 2993:25 2994:18 2995:1 2996:1 2997:127 2998:115 2999:44 3000:30 3001:127 3002:32 3005:3 3006:6 3007:16 3008:58 3012:24 3013:35 3014:127 3015:127 3017:32 3018:10 3019:4 3020:11 3021:9 3022:98 3023:127 3024:25 3025:95 3026:127 3027:5 3028:1 3029:27 3030:57 3031:60 3032:18 3033:74 3034:115 3035:1 3037:1 3042:6 3043:41 3044:114 3045:41 3046:22 3047:5 3049:43 3050:57 3051:127 3052:86 3053:6 3054:8 3055:18 3056:8 3057:127 3058:94 3059:31 3060:1 3063:1 3064:6 3065:46 3066:17 3072:1 3077:2 3085:41 3086:20 3087:9 3088:2 3089:7 3093:7 3094:12 3095:40 3096:49 3097:9 3103:1 3104:13 3109:3 3110:19 3111:64 3114:1 3117:124 3118:113 3119:56 3120:1 3121:119 3122:46 3123:2 3124:1 3125:60 3126:55 3127:44 3128:83 3129:78 3130:11 3136:20 3137:2 3138:1 3139:3 3140:22 3141:18 3142:117 3143:124 3144:5 3145:82 3146:56 3147:3 3148:2 3149:20 3150:87 3151:124 3152:36 3153:104 3154:124 3155:5 3156:1 3157:15 3158:17 3159:4 3160:3 3161:38 3162:32 3169:3 3170:14 3171:106 3172:124 3173:17 3174:16 3175:14 3176:2 3177:124 3178:109 3179:104 3180:19 3182:1 3183:8 3184:9 3185:123 3186:53 3187:3 3192:4 3193:12 3194:4 3205:22 3206:5 3213:33 3214:31 3215:39 3216:28 3217:19 3223:21 3224:53 3225:2 3232:1 3237:53 3238:55 3239:75 3241:37 3242:25 3243:2 3244:1 3245:133 3246:133 3247:55 3248:43 3249:133 3250:48 3253:4 3254:8 3255:22 3256:87 3257:12 3258:1 3264:1 3265:35 3266:11 3267:4 3268:10 3269:9 3270:94 3271:133 3272:26 3273:117 3274:133 3275:7 3276:2 3277:34 3278:66 3279:65 3280:20 3281:114 3282:133 3283:2 3285:1 3289:5 3290:2 3297:48 3298:61 3299:133 3300:76 3301:5 3302:7 3303:17 3304:8 3305:133 3306:113 3307:34 3308:1 3311:1 3312:8 3313:67 3314:24 3320:2 3321:1 3333:45 3334:24 3335:12 3336:3 3337:11 3341:8 3342:15 3343:54 3344:71 3345:15 3351:2 3352:21 3362:2 3365:128 3366:128 3367:59 3368:2 3369:128 3370:66 3371:2 3372:1 3373:73 3374:69 3375:60 3376:120 3377:124 3378:18 3383:1 3384:31 3393:94 3394:69 3395:4 3396:2 3397:24 3398:95 3399:128 3400:38 3401:128 3402:128 3403:7 3404:1 3405:18 3406:20 3407:4 3408:4 3409:60 3410:50 3425:128 3426:121 3427:105 3428:18 3430:1 3431:8 3432:10 3433:128 3434:70 3435:4 3440:6 3441:19 3442:6 3479:1 3485:3 3486:2 3487:6 3501:3 3502:16 3503:1 3509:13 3510:141 3511:88 3517:4 3518:141 3519:141 3520:1 3533:69 3534:37 3539:6 3540:91 3541:141 3542:141 3543:39 3545:6 3546:8 3547:66 3548:141 3549:79 3550:141 3551:141 3552:6 3564:1 3565:64 3566:41 3569:2 3570:37 3571:23 3572:49 3573:109 3574:35 3577:2 3578:52 3579:141 3580:141 3581:3 3606:1 3607:3 3613:33 3614:10 3615:4 3629:7 3630:58 3631:14 3637:8 3638:134 3639:134 3641:3 3645:16 3646:105 3647:134 3648:8 3653:5 3654:2 3660:13 3661:134 3662:92 3663:5 3667:24 3668:134 3669:134 3670:134 3671:99 3673:57 3674:40 3675:71 3676:84 3677:18 3678:60 3679:134 3680:24 3685:6 3686:6 3690:5 3691:2 3692:9 3693:97 3694:44 3697:3 3698:54 3699:83 3700:98 3701:27 3702:4 3705:9 3706:42 3707:134 3708:88 3733:3 3734:2 3735:4 3741:74 3742:32 3743:9 3744:1 3749:2 3750:9 3757:8 3758:100 3759:59 3765:3 3766:108 3767:124 3768:1 3769:9 3770:11 3771:1 3773:55 3774:115 3775:124 3776:12 3781:37 3782:20 3787:4 3788:61 3789:124 3790:124 3791:26 3793:5 3794:8 3795:54 3796:124 3797:56 3798:117 3799:124 3800:6 3801:124 3802:84 3803:35 3804:12 3805:1 3806:17 3807:98 3808:29 3813:33 3814:21 3817:1 3818:24 3819:16 3820:32 3821:62 3822:19 3825:2 3826:39 3827:124 3828:113 3829:2 3833:32 3834:60 3835:124 3836:31 3855:2 3861:35 3862:11 3863:4 3865:5 3869:71 3870:47 3871:30 3872:21 3877:4 3878:36 3879:9 3885:5 3886:112 3887:125 3889:3 3893:18 3894:100 3895:125 3896:8 3897:29 3898:59 3899:4 3900:1 3901:76 3902:95 3903:49 3904:12 3908:8 3909:84 3910:56 3911:3 3915:19 3916:125 3917:96 3918:125 3919:78 3921:61 3922:42 3923:65 3924:70 3925:14 3926:51 3927:125 3928:24 3929:125 3930:118 3931:7 3934:7 3935:24 3936:15 3938:3 3939:1 3940:6 3941:56 3942:25 3945:2 3946:40 3947:66 3948:76 3949:17 3950:2 3953:10 3954:42 3955:125 3956:77 3961:61 3962:55 3963:60 3964:10 3968:1 3981:3 3982:2 3983:4 3989:81 3990:37 3991:10 3992:2 3993:28 3994:1 3997:23 3998:25 3999:40 4000:55 4005:5 4006:67 4007:42 4013:2 4014:87 4015:118 4016:1 4017:10 4018:14 4019:1 4021:63 4022:118 4023:118 4024:12 4025:79 4026:107 4027:4 4028:1 4029:35 4030:32 4031:8 4032:16 4035:3 4036:44 4037:90 4038:86 4039:19 4041:5 4042:8 4043:47 4044:118 4045:43 4046:92 4047:118 4048:6 4049:118 4050:92 4051:33 4052:11 4053:1 4054:17 4055:94 4056:30 4057:96 4058:107 4059:1 4062:1 4063:1 4064:3 4065:1 4066:17 4067:12 4068:23 4069:37 4070:11 4073:1 4074:31 4075:118 4076:93 4077:1 4081:37 4082:64 4083:118 4084:30 4089:63 4090:26 4091:9 4092:2 4096:2 4103:2 4109:37 4110:12 4111:3 4113:7 4117:80 4118:56 4119:39 4120:30 4121:53 4122:1 4126:3 4127:20 4128:58 4133:3 4134:83 4135:116 4137:4 4141:19 4142:96 4143:123 4144:8 4145:38 4146:78 4147:5 4148:2 4149:89 4150:107 4151:52 4152:15 4153:118 4154:90 4155:1 4157:3 4158:3 4159:3 4160:15 4163:16 4164:99 4165:68 4166:99 4167:62 4169:65 4170:43 4171:60 4172:59 4173:12 4174:44 4175:123 4176:24 4177:123 4178:123 4179:7 4182:7 4183:24 4184:16 4185:49 4186:62 4192:1 4193:1 4194:30 4195:54 4196:59 4197:11 4198:1 4201:11 4202:41 4203:123 4204:68 4209:76 4210:63 4211:64 4212:11 4216:2 4217:39 4218:10 4224:1 4229:3 4230:1 4231:3 4237:90 4238:42 4239:13 4240:2 4241:42 4242:2 4245:27 4246:30 4247:53 4248:78 4249:34 4255:1 4256:20 4261:2 4262:71 4263:118 4264:1 4265:12 4266:17 4267:1 4269:72 4270:118 4271:118 4272:13 4273:116 4274:118 4275:5 4276:2 4277:42 4278:39 4279:11 4280:23 4281:64 4282:28 4288:4 4289:6 4290:7 4291:41 4292:99 4293:33 4294:74 4295:118 4296:6 4297:118 4298:103 4299:32 4300:9 4301:1 4302:17 4303:93 4304:31 4305:118 4306:118 4307:1 4310:1 4311:1 4312:4 4313:17 4314:15 4321:1 4322:25 4323:118 4324:77 4325:1 4329:43 4330:70 4331:118 4332:30 4337:84 4338:34 4339:11 4340:3 4344:2 4345:10 4346:2 4357:41 4358:13 4359:3 4361:11 4365:93 4366:68 4367:52 4368:41 4369:82 4370:2 4373:1 4374:4 4375:28 4376:85 4377:6 4384:1 4385:4 4389:21 4390:95 4391:127 4392:9 4393:52 4394:105 4395:6 4396:2 4397:106 4398:124 4399:56 4400:19 4401:127 4402:127 4403:2 4405:3 4406:3 4407:4 4408:22 4409:9 4410:2 4417:70 4418:46 4419:57 4420:51 4421:10 4422:39 4423:127 4424:25 4425:127 4426:127 4427:8 4429:1 4430:8 4431:26 4432:18 4433:72 4434:88 4440:1 4441:2 4442:1 4449:12 4450:42 4451:127 4452:62 4457:96 4458:74 4459:71 4460:13 4464:2 4465:56 4466:14 4472:1 4485:106 4486:52 4487:17 4488:3 4489:68 4490:3 4493:34 4494:39 4495:75 4496:118 4497:57 4498:1 4503:2 4504:33 4513:14 4514:23 4515:2 4516:1 4517:88 4518:127 4519:127 4520:15 4521:127 4522:127 4523:7 4524:2 4525:54 4526:49 4527:14 4528:35 4529:106 4530:45 4536:7 4545:127 4546:124 4547:33 4548:9 4549:1 4550:18 4551:97 4552:35 4553:127 4554:127 4555:2 4558:2 4559:1 4560:5 4561:28 4562:24 4577:53 4578:82 4579:127 4580:32 4585:120 4586:46 4587:13 4588:3 4592:4 4593:16 4594:3 4622:1 4630:22 4631:26 4637:2 4638:29 4639:94 4653:30 4654:36 4655:1 4660:27 4661:116 4662:157 4663:94 4665:3 4666:2 4667:5 4668:54 4669:45 4670:157 4671:157 4672:6 4685:89 4686:41 4690:10 4691:21 4692:118 4693:157 4694:75 4695:1 4697:4 4698:27 4699:157 4700:157 4701:44 4702:36 4703:21 4704:2 4716:5 4717:61 4718:28 4721:13 4722:77 4723:20 4724:14 4725:61 4726:21 4729:13 4730:79 4731:120 4732:27 4750:7 4751:4 4758:24 4759:52 4765:28 4766:41 4767:79 4773:2 4774:1 4780:3 4781:62 4782:110 4783:13 4787:1 4788:47 4789:73 4790:143 4791:143 4793:29 4794:10 4795:5 4796:19 4797:12 4798:107 4799:143 4800:23 4805:7 4806:5 4810:1 4811:1 4812:17 4813:143 4814:56 4818:16 4819:80 4820:143 4821:97 4822:43 4823:7 4825:42 4826:65 4827:143 4828:141 4829:9 4830:12 4831:21 4832:8 4837:8 4838:4 4841:2 4842:14 4843:4 4844:10 4845:70 4846:28 4849:17 4850:94 4851:46 4852:13 4853:9 4854:2 4857:2 4858:23 4859:141 4860:33 4870:1 4878:14 4879:17 4885:2 4886:23 4887:74 4890:1 4893:80 4894:72 4895:45 4901:16 4902:19 4908:18 4909:70 4910:134 4911:63 4913:2 4914:2 4915:4 4916:40 4917:32 4918:134 4919:134 4920:5 4921:70 4922:41 4923:3 4924:2 4925:12 4926:67 4927:134 4928:32 4933:47 4934:21 4938:7 4939:15 4940:79 4941:134 4942:44 4943:1 4945:3 4946:22 4947:134 4948:134 4949:31 4950:26 4951:17 4952:2 4953:115 4954:110 4955:134 4956:29 4958:1 4959:9 4960:9 4964:2 4965:31 4966:14 4969:8 4970:50 4971:13 4972:8 4973:33 4974:11 4977:9 4978:57 4979:97 4980:22 4985:3 4986:17 4987:105 4988:34 4989:1 4998:4 4999:3 5006:17 5007:40 5013:31 5014:41 5015:73 5017:13 5018:11 5019:1 5021:91 5022:75 5023:26 5024:15 5028:2 5029:37 5030:69 5031:9 5035:1 5036:36 5037:52 5038:132 5039:132 5041:31 5042:11 5043:5 5044:16 5045:10 5046:97 5047:132 5048:24 5049:82 5050:110 5051:3 5052:1 5053:18 5054:43 5055:53 5056:17 5060:11 5061:94 5062:32 5066:12 5067:65 5068:132 5069:67 5070:31 5071:6 5073:45 5074:67 5075:132 5076:121 5077:8 5078:10 5079:20 5080:8 5081:132 5082:96 5083:39 5084:2 5087:1 5088:6 5089:1 5090:10 5091:3 5092:6 5093:40 5094:16 5097:12 5098:69 5099:37 5100:10 5101:5 5102:1 5105:2 5106:21 5107:132 5108:32 5113:16 5114:24 5115:47 5116:24 5117:2 5126:9 5127:12 5133:2 5134:19 5135:62 5138:1 5141:89 5142:78 5143:45 5145:60 5146:27 5147:1 5149:37 5150:33 5151:22 5152:40 5156:13 5157:45 5158:119 5159:45 5161:2 5162:2 5163:3 5164:31 5165:24 5166:124 5167:124 5168:5 5169:77 5170:47 5171:3 5172:2 5173:13 5174:69 5175:124 5176:33 5177:71 5178:124 5179:3 5181:9 5182:11 5183:3 5184:2 5186:5 5187:11 5188:56 5189:83 5190:27 5193:3 5194:19 5195:124 5196:124 5197:23 5198:20 5199:15 5200:2 5201:124 5202:117 5203:124 5204:26 5206:1 5207:9 5208:9 5209:111 5210:47 5211:4 5216:4 5217:6 5218:35 5219:9 5220:5 5221:19 5222:6 5225:7 5226:43 5227:84 5228:19 5233:3 5234:18 5235:105 5236:35 5237:2 5241:32 5242:20 5243:10 5244:7 5254:13 5255:31 5261:33 5262:41 5263:66 5265:19 5266:15 5267:1 5269:104 5270:86 5271:31 5272:20 5273:98 5274:27 5277:2 5278:4 5279:10 5280:39 5283:1 5284:27 5285:36 5286:125 5287:125 5289:33 5290:11 5291:4 5292:13 5293:9 5294:87 5295:125 5296:24 5297:96 5298:125 5299:4 5300:1 5301:22 5302:48 5303:54 5304:18 5305:65 5306:105 5307:1 5314:9 5315:52 5316:125 5317:45 5318:22 5319:5 5321:48 5322:68 5323:125 5324:103 5325:6 5326:8 5327:18 5328:8 5329:125 5330:109 5331:41 5332:2 5335:1 5336:7 5337:54 5338:18 5344:2 5345:9 5346:50 5347:30 5348:8 5349:3 5353:1 5354:18 5355:125 5356:30 5361:22 5362:29 5363:51 5364:27 5365:2 5369:26 5370:9 5376:1 5381:2 5382:16 5383:55 5386:1 5389:103 5390:89 5391:47 5392:1 5393:92 5394:39 5395:1 5397:45 5398:41 5399:30 5400:58 5401:59 5402:10 5408:14 5409:3 5410:2 5411:3 5412:26 5413:19 5414:112 5415:124 5416:5 5417:88 5418:57 5419:3 5420:2 5421:16 5422:75 5423:124 5424:36 5425:99 5426:124 5427:5 5428:1 5429:12 5430:14 5431:3 5432:3 5433:33 5434:29 5441:4 5442:18 5443:124 5444:124 5445:18 5446:17 5447:14 5448:2 5449:124 5450:124 5451:124 5452:24 5454:1 5455:8 5456:10 5457:124 5458:61 5459:5 5464:6 5465:15 5466:4 5473:5 5474:34 5475:77 5476:17 5481:4 5482:21 5483:110 5484:38 5485:2 5489:45 5490:27 5491:12 5492:9 5496:1 5497:8 5498:1 5509:38 5510:45 5511:65 5513:29 5514:22 5515:2 5516:1 5517:127 5518:106 5519:40 5520:30 5521:131 5522:41 5525:3 5526:6 5527:15 5528:60 5529:9 5537:37 5538:12 5539:4 5540:11 5541:8 5542:85 5543:131 5544:26 5545:120 5546:131 5547:6 5548:1 5549:27 5550:56 5551:60 5552:20 5553:102 5554:131 5555:1 5557:1 5561:4 5562:2 5569:54 5570:74 5571:131 5572:93 5573:5 5574:7 5575:17 5576:8 5577:131 5578:131 5579:46 5580:2 5583:1 5584:9 5585:81 5586:27 5592:3 5593:1 5601:1 5602:17 5603:126 5604:31 5609:30 5610:38 5611:59 5612:32 5613:2 5617:40 5618:14 5624:1 5634:2 5637:125 5638:107 5639:51 5640:1 5641:130 5642:60 5643:2 5644:1 5645:58 5646:54 5647:43 5648:88 5649:99 5650:16 5656:22 5665:105 5666:74 5667:4 5668:2 5669:20 5670:86 5671:130 5672:40 5673:130 5674:130 5675:6 5676:1 5677:15 5678:17 5679:4 5680:4 5681:56 5682:48 5697:130 5698:130 5699:130 5700:24 5702:1 5703:8 5704:11 5705:130 5706:84 5707:6 5712:8 5713:24 5714:7 5729:6 5730:26 5731:122 5732:44 5733:2 5737:67 5738:38 5739:16 5740:11 5741:1 5744:2 5745:12 5746:2 5773:3 5774:14 5775:1 5781:12 5782:132 5783:69 5789:4 5790:118 5791:136 5792:1 5805:70 5806:35 5811:6 5812:94 5813:136 5814:136 5815:32 5817:6 5818:9 5819:72 5820:136 5821:75 5822:136 5823:136 5824:6 5836:1 5837:77 5838:50 5841:3 5842:49 5843:29 5844:53 5845:127 5846:42 5849:3 5850:68 5851:136 5852:136 5853:3 5867:1 5868:8 5869:46 5870:6 5873:20 5874:71 5875:12 5876:13 5877:29 5878:3 5881:24 5882:50 5883:20 5884:1 5901:7 5902:48 5903:11 5909:7 5910:127 5911:129 5913:3 5917:11 5918:81 5919:129 5920:7 5925:5 5926:2 5932:13 5933:129 5934:83 5935:4 5939:27 5940:129 5941:129 5942:129 5943:83 5945:55 5946:42 5947:78 5948:87 5949:17 5950:52 5951:129 5952:22 5957:8 5958:7 5962:7 5963:3 5964:10 5965:114 5966:53 5969:4 5970:72 5971:98 5972:106 5973:31 5974:5 5977:10 5978:49 5979:129 5980:100 5989:7 5990:1 5993:3 5994:18 5995:6 5996:13 5997:44 5998:5 6001:29 6002:71 6003:10 6004:2 6005:2 6009:5 6010:11 6011:26 6012:10 6013:1 6021:1 6022:8 6029:8 6030:88 6031:49 6037:3 6038:94 6039:125 6040:1 6041:9 6042:10 6043:1 6045:40 6046:90 6047:125 6048:11 6053:39 6054:20 6059:5 6060:67 6061:125 6062:121 6063:23 6065:6 6066:9 6067:63 6068:125 6069:57 6070:109 6071:125 6072:6 6073:125 6074:89 6075:41 6076:14 6077:1 6078:15 6079:87 6080:28 6084:1 6085:43 6086:27 6089:2 6090:35 6091:21 6092:37 6093:76 6094:24 6097:2 6098:53 6099:125 6100:125 6101:2 6105:37 6106:71 6107:125 6108:41 6115:1 6116:4 6117:25 6118:3 6121:14 6122:48 6123:8 6124:7 6125:16 6126:1 6129:18 6130:38 6131:17 6132:1 6138:2 6139:22 6140:23 6141:4 6149:4 6150:32 6151:8 6157:5 6158:98 6159:124 6161:3 6165:13 6166:81 6167:125 6168:7 6169:24 6170:51 6171:3 6172:1 6173:55 6174:73 6175:40 6176:10 6180:9 6181:88 6182:54 6183:3 6187:23 6188:125 6189:98 6190:125 6191:69 6193:62 6194:46 6195:76 6196:78 6197:15 6198:47 6199:125 6200:23 6201:125 6202:118 6203:8 6206:5 6207:21 6208:14 6210:5 6211:2 6212:7 6213:70 6214:32 6217:3 6218:56 6219:84 6220:87 6221:21 6222:3 6225:11 6226:51 6227:125 6228:93 6233:72 6234:67 6235:79 6236:15 6240:1 6241:2 6242:12 6243:4 6244:8 6245:26 6246:2 6249:22 6250:54 6251:8 6252:1 6253:1 6257:4 6258:9 6259:26 6260:11 6261:1 6265:6 6266:5 6267:13 6268:23 6269:5 6277:5 6278:61 6279:37 6285:2 6286:78 6287:121 6288:1 6289:10 6290:13 6291:1 6293:47 6294:100 6295:121 6296:12 6297:64 6298:95 6299:3 6300:1 6301:27 6302:25 6303:6 6304:12 6307:3 6308:50 6309:98 6310:84 6311:17 6313:6 6314:9 6315:57 6316:121 6317:45 6318:89 6319:121 6320:6 6321:121 6322:102 6323:41 6324:12 6325:1 6326:15 6327:88 6328:30 6329:105 6330:106 6331:1 6334:1 6335:1 6336:3 6337:1 6338:26 6339:16 6340:27 6341:48 6342:14 6345:2 6346:44 6347:121 6348:113 6349:2 6353:44 6354:80 6355:121 6356:42 6361:80 6362:36 6363:13 6364:4 6368:2 6369:10 6370:34 6371:5 6372:4 6373:9 6374:1 6377:14 6378:30 6379:16 6380:1 6386:2 6387:24 6388:26 6389:5 6393:17 6394:7 6395:4 6396:9 6397:2 6400:1 6405:4 6406:77 6407:104 6409:4 6413:15 6414:84 6415:128 6416:8 6417:33 6418:72 6419:4 6420:1 6421:69 6422:88 6423:46 6424:13 6425:96 6426:81 6427:1 6429:2 6430:2 6431:2 6432:11 6435:20 6436:115 6437:74 6438:98 6439:59 6441:71 6442:51 6443:75 6444:70 6445:13 6446:43 6447:128 6448:25 6449:128 6450:128 6451:9 6454:6 6455:23 6456:16 6457:54 6458:61 6464:1 6465:2 6466:45 6467:73 6468:72 6469:14 6470:2 6473:13 6474:54 6475:128 6476:89 6481:96 6482:83 6483:90 6484:18 6488:2 6489:52 6490:14 6496:1 6497:18 6498:42 6499:6 6505:4 6506:8 6507:26 6508:12 6509:1 6513:9 6514:7 6515:15 6516:28 6517:6 6521:18 6522:4 6528:2 6533:2 6534:66 6535:122 6536:1 6537:12 6538:17 6539:1 6541:56 6542:112 6543:122 6544:13 6545:96 6546:122 6547:4 6548:1 6549:33 6550:31 6551:8 6552:17 6553:53 6554:25 6560:3 6561:6 6562:9 6563:52 6564:118 6565:36 6566:73 6567:117 6568:6 6569:122 6570:117 6571:41 6572:11 6573:1 6574:15 6575:89 6576:32 6577:122 6578:122 6579:1 6582:1 6583:1 6584:4 6585:18 6586:14 6593:2 6594:36 6595:122 6596:98 6597:1 6601:53 6602:91 6603:122 6604:43 6609:111 6610:47 6611:16 6612:4 6616:3 6617:13 6618:3 6625:11 6626:24 6627:14 6628:1 6634:2 6635:25 6636:30 6637:5 6641:26 6642:10 6643:5 6644:11 6645:2 6648:2 6649:6 6656:1 6657:4 6661:17 6662:86 6663:133 6664:9 6665:47 6666:101 6667:6 6668:2 6669:86 6670:106 6671:52 6672:17 6673:133 6674:122 6675:1 6677:3 6678:3 6679:3 6680:17 6681:7 6682:2 6689:81 6690:56 6691:74 6692:63 6693:11 6694:40 6695:133 6696:27 6697:133 6698:133 6699:10 6702:8 6703:25 6704:19 6705:82 6706:91 6712:1 6713:2 6714:1 6721:15 6722:57 6723:133 6724:84 6729:126 6730:102 6731:103 6732:21 6736:3 6737:78 6738:21 6744:2 6753:3 6754:7 6755:27 6756:14 6757:2 6761:13 6762:9 6763:19 6764:34 6765:7 6769:28 6770:6 6776:4 6785:16 6786:25 6787:2 6788:1 6789:75 6790:137 6791:137 6792:16 6793:137 6794:137 6795:7 6796:2 6797:47 6798:43 6799:12 6800:28 6801:96 6802:44 6808:6 6817:137 6818:137 6819:46 6820:12 6821:1 6822:18 6823:102 6824:39 6825:137 6826:137 6827:2 6830:2 6831:1 6832:7 6833:33 6834:26 6849:71 6850:116 6851:137 6852:50 6856:1 6857:137 6858:70 6859:22 6860:6 6864:5 6865:24 6866:5 6881:1 6882:3 6883:31 6884:39 6885:7 6889:43 6890:15 6891:8 6892:15 6893:3 6896:4 6897:11 6904:2 6925:28 6926:31 6927:1 6932:27 6933:108 6934:149 6935:75 6937:3 6938:2 6939:5 6940:53 6941:42 6942:149 6943:149 6944:5 6957:95 6958:46 6962:13 6963:24 6964:122 6965:149 6966:74 6967:1 6969:4 6970:32 6971:149 6972:149 6973:42 6974:32 6975:19 6976:2 6987:1 6988:8 6989:83 6990:35 6993:19 6994:107 6995:26 6996:20 6997:79 6998:26 7001:20 7002:107 7003:147 7004:32 7019:1 7020:6 7021:21 7025:12 7026:38 7027:7 7028:7 7029:10 7033:17 7034:16 7045:2 7046:1 7052:3 7053:60 7054:96 7055:11 7059:1 7060:48 7061:70 7062:141 7063:141 7065:28 7066:10 7067:6 7068:19 7069:11 7070:90 7071:141 7072:21 7077:8 7078:6 7082:1 7083:1 7084:18 7085:141 7086:61 7090:21 7091:94 7092:141 7093:99 7094:40 7095:6 7097:42 7098:71 7099:141 7100:141 7101:9 7102:11 7103:19 7104:7 7109:11 7110:6 7113:3 7114:22 7115:7 7116:15 7117:96 7118:35 7121:26 7122:132 7123:59 7124:16 7125:11 7126:3 7129:4 7130:32 7131:141 7132:43 7141:4 7145:1 7146:11 7147:4 7148:8 7149:18 7153:19 7154:30 7155:2 7161:4 7162:2 7164:2 7165:1 7173:15 7174:17 7180:19 7181:68 7182:131 7183:53 7185:2 7186:2 7187:4 7188:41 7189:31 7190:131 7191:131 7192:5 7193:68 7194:38 7195:3 7196:2 7197:9 7198:53 7199:131 7200:29 7205:52 7206:24 7210:9 7211:17 7212:85 7213:131 7214:45 7217:3 7218:27 7219:131 7220:131 7221:31 7222:24 7223:16 7224:2 7225:120 7226:122 7227:131 7228:33 7230:1 7231:8 7232:8 7236:4 7237:44 7238:19 7241:13 7242:73 7243:17 7244:12 7245:45 7246:15 7249:15 7250:80 7251:125 7252:27 7257:3 7258:21 7259:131 7260:47 7261:3 7267:1 7268:3 7269:11 7273:8 7274:25 7275:4 7276:4 7277:5 7281:13 7282:11 7292:7 7293:3 7300:2 7301:38 7302:63 7303:7 7307:1 7308:38 7309:52 7310:134 7311:134 7313:32 7314:11 7315:5 7316:17 7317:10 7318:85 7319:134 7320:23 7321:80 7322:102 7323:3 7325:14 7326:34 7327:46 7328:15 7330:1 7332:12 7333:106 7334:37 7338:16 7339:79 7340:134 7341:71 7342:30 7343:5 7345:48 7346:77 7347:134 7348:134 7349:8 7350:10 7351:19 7352:7 7353:134 7354:108 7355:51 7356:2 7359:1 7360:6 7361:2 7362:15 7363:4 7364:9 7365:57 7366:21 7369:20 7370:102 7371:50 7372:13 7373:7 7374:2 7377:3 7378:29 7379:134 7380:43 7381:1 7385:22 7386:32 7387:64 7388:36 7389:3 7393:1 7394:8 7395:3 7396:5 7397:10 7401:15 7402:22 7403:1 7409:3 7410:2 7412:2 7413:1 7417:2 7420:10 7421:4 7428:14 7429:46 7430:111 7431:39 7433:3 7434:2 7435:4 7436:34 7437:25 7438:125 7439:126 7440:5 7441:79 7442:47 7443:3 7444:2 7445:10 7446:58 7447:126 7448:32 7449:66 7450:126 7451:3 7453:7 7454:9 7455:2 7456:2 7458:7 7459:13 7460:64 7461:94 7462:29 7465:4 7466:24 7467:126 7468:126 7469:24 7470:20 7471:14 7472:2 7473:126 7474:126 7475:126 7476:32 7478:1 7479:8 7480:9 7481:126 7482:52 7483:6 7488:5 7489:10 7490:53 7491:12 7492:8 7493:27 7494:9 7497:12 7498:64 7499:114 7500:24 7505:4 7506:24 7507:126 7508:52 7509:3 7513:45 7514:29 7515:15 7516:12 7517:1 7520:1 7521:6 7522:17 7523:2 7524:2 7525:3 7529:10 7530:9 7540:9 7541:4 7545:8 7546:1 7548:4 7549:2 7552:1 7555:1 7556:31 7557:39 7558:132 7559:122 7561:36 7562:12 7563:5 7564:15 7565:9 7566:81 7567:132 7568:25 7569:100 7570:132 7571:4 7572:1 7573:18 7574:41 7575:50 7576:17 7577:59 7578:98 7579:1 7586:13 7587:68 7588:132 7589:51 7590:23 7591:5 7593:54 7594:84 7595:132 7596:127 7597:7 7598:8 7599:18 7600:8 7601:132 7602:131 7603:57 7604:3 7607:1 7608:8 7609:67 7610:21 7616:2 7617:16 7618:79 7619:42 7620:10 7621:4 7622:1 7625:3 7626:27 7627:132 7628:45 7629:1 7633:31 7634:41 7635:74 7636:43 7637:4 7641:40 7642:14 7643:1 7648:2 7649:12 7650:16 7651:1 7657:3 7658:2 7660:3 7661:1 7665:3 7667:1 7668:12 7669:5 7673:9 7680:1 7681:3 7682:2 7683:4 7684:30 7685:21 7686:111 7687:133 7688:5 7689:97 7690:61 7691:4 7692:2 7693:13 7694:68 7695:133 7696:37 7697:99 7698:133 7699:4 7700:1 7701:10 7702:12 7703:3 7704:3 7705:31 7706:28 7713:4 7714:24 7715:133 7716:133 7717:21 7718:18 7719:14 7720:2 7721:133 7722:133 7723:133 7724:32 7726:1 7727:9 7728:11 7729:133 7730:74 7731:7 7736:7 7737:19 7738:5 7745:10 7746:55 7747:112 7748:24 7753:6 7754:31 7755:133 7756:62 7757:4 7761:69 7762:41 7763:19 7764:15 7765:1 7768:2 7769:12 7770:2 7776:1 7777:9 7778:7 7787:1 7788:11 7789:5 7793:12 7794:1 7796:6 7797:2 7800:2 7801:4 7808:1 7809:43 7810:15 7811:5 7812:14 7813:9 7814:84 7815:142 7816:29 7817:135 7818:142 7819:6 7820:1 7821:24 7822:51 7823:59 7824:21 7825:100 7826:142 7827:1 7829:1 7833:4 7834:2 7841:66 7842:98 7843:142 7844:124 7845:6 7846:8 7847:19 7848:9 7849:142 7850:142 7851:68 7852:4 7855:1 7856:11 7857:107 7858:33 7864:3 7865:1 7873:3 7874:27 7875:142 7876:49 7877:1 7881:47 7882:58 7883:93 7884:55 7885:5 7889:64 7890:22 7891:1 7896:3 7905:2 7906:2 7908:4 7909:1 7913:6 7914:1 7915:1 7916:16 7917:7 7921:16 7928:3 7937:129 7938:87 7939:5 7940:3 7941:19 7942:86 7943:148 7944:46 7945:148 7946:148 7947:7 7948:1 7949:15 7950:17 7951:4 7952:4 7953:58 7954:51 7969:148 7970:148 7971:148 7972:36 7974:1 7975:10 7976:14 7977:148 7978:113 7979:10 7984:11 7985:34 7986:9 8001:10 8002:42 8003:148 8004:80 8005:5 8009:115 8010:65 8011:27 8012:21 8013:2 8016:4 8017:22 8018:4 8024:1 8035:1 8036:15 8037:7 8041:22 8042:2 8043:1 8044:9 8045:3 8048:3 8049:7 8056:1 8077:77 8078:37 8083:8 8084:106 8085:139 8086:139 8087:29 8089:6 8090:10 8091:88 8092:139 8093:79 8094:134 8095:139 8096:6 8108:2 8109:104 8110:67 8113:6 8114:74 8115:39 8116:65 8117:139 8118:57 8121:5 8122:99 8123:139 8124:139 8125:4 8138:1 8139:3 8140:14 8141:75 8142:8 8145:35 8146:118 8147:21 8148:21 8149:47 8150:4 8153:42 8154:80 8155:29 8156:2 8172:1 8173:3 8177:1 8178:9 8179:2 8180:1 8181:1 8185:3 8186:3 8197:6 8198:3 8204:15 8205:132 8206:83 8207:3 8211:32 8212:132 8213:132 8214:132 8215:76 8217:59 8218:48 8219:94 8220:100 8221:18 8222:49 8223:132 8224:21 8229:11 8230:10 8233:1 8234:11 8235:4 8236:14 8237:132 8238:71 8241:7 8242:105 8243:129 8244:126 8245:38 8246:7 8249:11 8250:63 8251:132 8252:126 8261:12 8262:1 8265:5 8266:30 8267:10 8268:22 8269:72 8270:7 8273:49 8274:115 8275:16 8276:3 8277:3 8281:9 8282:17 8283:38 8284:15 8285:2 8298:2 8299:1 8300:1 8301:2 8305:2 8306:6 8325:46 8326:21 8331:6 8332:79 8333:135 8334:124 8335:22 8337:6 8338:10 8339:80 8340:135 8341:63 8342:110 8343:135 8344:6 8345:135 8346:104 8347:52 8348:17 8349:1 8350:14 8351:85 8352:29 8356:1 8357:60 8358:38 8361:4 8362:54 8363:29 8364:47 8365:103 8366:34 8369:4 8370:80 8371:135 8372:135 8373:3 8377:45 8378:93 8379:135 8380:59 8387:2 8388:8 8389:43 8390:4 8393:26 8394:84 8395:14 8396:13 8397:28 8398:2 8401:33 8402:63 8403:27 8404:2 8410:3 8411:34 8412:38 8413:7 8421:2 8425:1 8426:6 8427:1 8433:2 8434:2 8444:1 8445:1 8452:11 8453:98 8454:54 8455:2 8459:28 8460:130 8461:105 8462:122 8463:65 8465:67 8466:53 8467:93 8468:91 8469:16 8470:45 8471:130 8472:23 8473:130 8474:124 8475:10 8478:5 8479:19 8480:14 8482:8 8483:3 8484:9 8485:93 8486:43 8489:5 8490:83 8491:112 8492:105 8493:26 8494:4 8497:13 8498:66 8499:130 8500:120 8505:89 8506:87 8507:109 8508:23 8512:2 8513:3 8514:21 8515:7 8516:13 8517:43 8518:4 8521:39 8522:89 8523:12 8524:2 8525:2 8529:8 8530:15 8531:38 8532:17 8533:2 8537:10 8538:7 8539:19 8540:38 8541:9 8546:2 8548:1 8549:1 8553:2 8554:5 8572:1 8573:1 8579:5 8580:60 8581:113 8582:87 8583:17 8585:7 8586:11 8587:74 8588:132 8589:51 8590:92 8591:130 8592:6 8593:132 8594:121 8595:53 8596:16 8597:1 8598:15 8599:87 8600:31 8601:123 8602:112 8603:1 8606:1 8607:1 8608:4 8609:3 8610:41 8611:23 8612:36 8613:66 8614:21 8617:3 8618:67 8619:132 8620:132 8621:2 8625:56 8626:107 8627:132 8628:62 8633:110 8634:52 8635:20 8636:6 8640:3 8641:19 8642:61 8643:9 8644:8 8645:16 8646:1 8649:27 8650:51 8651:25 8652:3 8657:1 8658:3 8659:37 8660:45 8661:9 8665:31 8666:12 8667:7 8668:16 8669:4 8672:3 8674:4 8681:2 8682:1 8692:1 8693:1 8697:1 8707:25 8708:136 8709:82 8710:100 8711:57 8713:80 8714:62 8715:96 8716:86 8717:14 8718:43 8719:136 8720:26 8721:136 8722:136 8723:11 8726:6 8727:22 8728:17 8729:61 8730:62 8736:1 8737:4 8738:69 8739:101 8740:91 8741:18 8742:3 8745:16 8746:72 8747:136 8748:120 8753:124 8754:113 8755:131 8756:28 8760:3 8761:72 8762:21 8768:1 8769:32 8770:71 8771:10 8772:1 8773:1 8777:7 8778:14 8779:41 8780:21 8781:3 8785:16 8786:11 8787:24 8788:49 8789:11 8792:1 8793:32 8794:6 8795:1 8796:1 8800:4 8801:2 8802:3 8820:1 8821:1 8825:2 8833:7 8834:12 8835:71 8836:138 8837:43 8838:80 8839:123 8840:7 8841:138 8842:138 8843:56 8844:15 8845:1 8846:16 8847:93 8848:35 8849:138 8850:138 8851:1 8854:1 8855:1 8856:6 8857:22 8858:16 8865:3 8866:59 8867:138 8868:135 8869:1 8873:70 8874:128 8875:138 8876:68 8881:138 8882:72 8883:26 8884:8 8888:4 8889:20 8890:4 8897:22 8898:43 8899:24 8900:3 8905:1 8906:4 8907:42 8908:54 8909:11 8913:48 8914:17 8915:10 8916:21 8917:5 8920:5 8921:12 8928:2 8929:1 8930:1 8940:1 8941:1 8945:2 8948:1 8953:1 8961:97 8962:73 8963:101 8964:82 8965:13 8966:43 8967:149 8968:30 8969:149 8970:149 8971:14 8974:7 8975:26 8976:22 8977:100 8978:99 8984:2 8985:2 8986:1 8993:19 8994:81 8995:149 8996:122 9001:149 9002:149 9003:149 9004:36 9008:4 9009:116 9010:33 9011:1 9016:2 9017:1 9025:6 9026:13 9027:44 9028:25 9029:4 9033:25 9034:16 9035:31 9036:64 9037:15 9040:1 9041:53 9042:10 9043:1 9044:1 9048:8 9065:1 9068:2 9069:2 9073:3 9089:162 9090:162 9091:68 9092:17 9093:1 9094:20 9095:114 9096:46 9097:162 9098:162 9099:2 9102:2 9103:2 9104:9 9105:42 9106:30 9121:103 9122:162 9123:162 9124:86 9125:1 9128:1 9129:162 9130:116 9131:38 9132:12 9136:8 9137:38 9138:9 9153:2 9154:6 9155:55 9156:76 9157:16 9161:85 9162:28 9163:15 9164:31 9165:7 9168:9 9169:23 9170:1 9176:4 9188:2 9189:2 9193:4 9196:1 9197:1 9201:2 9229:123 9230:62 9234:20 9235:34 9236:153 9237:155 9238:92 9239:1 9241:4 9242:46 9243:155 9244:155 9245:48 9246:34 9247:20 9248:2 9259:2 9260:14 9261:137 9262:54 9265:36 9266:155 9267:42 9268:33 9269:126 9270:39 9273:38 9274:155 9275:155 9276:46 9290:1 9291:3 9292:11 9293:41 9297:24 9298:74 9299:14 9300:13 9301:20 9305:33 9306:30 9349:11 9350:9 9354:2 9355:2 9356:23 9357:155 9358:84 9362:34 9363:135 9364:155 9365:126 9366:47 9367:7 9369:53 9370:97 9371:155 9372:155 9373:11 9374:13 9375:22 9376:8 9381:20 9382:10 9385:6 9386:40 9387:13 9388:27 9389:155 9390:56 9393:50 9394:155 9395:94 9396:24 9397:18 9398:4 9401:8 9402:53 9403:155 9404:69 9405:1 9412:1 9413:8 9417:3 9418:23 9419:9 9420:16 9421:37 9425:38 9426:60 9427:4 9428:1 9433:8 9434:5 9435:1 9436:4 9437:2 9477:70 9478:35 9482:14 9483:25 9484:111 9485:144 9486:57 9487:1 9489:4 9490:39 9491:144 9492:144 9493:37 9494:27 9495:18 9496:2 9497:144 9498:144 9499:144 9500:47 9502:1 9503:9 9504:10 9507:1 9508:8 9509:76 9510:29 9513:25 9514:128 9515:29 9516:21 9517:74 9518:23 9521:29 9522:136 9523:144 9524:40 9529:5 9530:32 9531:144 9532:80 9533:5 9539:2 9540:6 9541:22 9545:17 9546:50 9547:9 9548:8 9549:11 9553:25 9554:23 9563:1 9564:15 9565:7 9602:1 9603:1 9604:16 9605:139 9606:50 9610:26 9611:113 9612:145 9613:88 9614:35 9615:6 9617:58 9618:102 9619:145 9620:145 9621:9 9622:11 9623:20 9624:8 9625:145 9626:142 9627:75 9628:4 9631:1 9632:8 9633:4 9634:27 9635:8 9636:16 9637:95 9638:32 9641:38 9642:145 9643:77 9644:19 9645:11 9646:3 9649:7 9650:47 9651:145 9652:69 9653:2 9657:35 9658:49 9659:101 9660:63 9661:6 9665:2 9666:16 9667:6 9668:10 9669:21 9673:29 9674:44 9675:3 9676:1 9681:7 9682:4 9683:1 9684:5 9685:2 9689:5 9690:1 9691:1 9692:19 9693:9 9730:11 9731:21 9732:88 9733:129 9734:39 9737:5 9738:37 9739:146 9740:146 9741:31 9742:24 9743:17 9744:2 9745:146 9746:146 9747:146 9748:48 9750:1 9751:10 9752:11 9753:146 9754:72 9755:10 9760:7 9761:20 9762:99 9763:22 9764:14 9765:48 9766:14 9769:24 9770:116 9771:146 9772:39 9777:7 9778:39 9779:146 9780:95 9781:7 9785:78 9786:49 9787:26 9788:22 9789:2 9792:2 9793:13 9794:37 9795:6 9796:5 9797:6 9801:22 9802:19 9811:1 9812:18 9813:9 9817:17 9818:2 9819:1 9820:10 9821:4 9824:2 9858:22 9859:102 9860:150 9861:67 9862:28 9863:5 9865:70 9866:117 9867:150 9868:150 9869:8 9870:10 9871:21 9872:9 9873:150 9874:150 9875:89 9876:5 9879:1 9880:11 9881:95 9882:28 9888:3 9889:31 9890:143 9891:69 9892:16 9893:8 9894:2 9897:6 9898:45 9899:150 9900:75 9901:2 9905:52 9906:68 9907:124 9908:80 9909:8 9912:1 9913:70 9914:24 9915:1 9920:4 9921:24 9922:34 9923:2 9929:6 9930:4 9931:1 9932:6 9933:3 9937:8 9938:1 9939:2 9940:25 9941:12 9944:1 9945:19 9946:1 9948:1 9952:4 9985:6 9986:37 9987:154 9988:154 9989:26 9990:21 9991:17 9992:3 9993:154 9994:154 9995:154 9996:49 9998:1 9999:10 10000:13 10001:154 10002:102 10003:12 10004:1 10008:10 10009:27 10010:7 10017:21 10018:100 10019:154 10020:38 10025:10 10026:49 10027:154 10028:113 10029:9 10033:121 10034:71 10035:34 10036:29 10037:3 10040:4 10041:23 10042:4 10048:2 10049:19 10050:16 10058:1 10059:1 10060:23 10061:11 10065:27 10066:3 10067:1 10068:13 10069:5 10072:4 10073:8 10080:2 10113:84 10114:134 10115:159 10116:159 10117:7 10118:9 10119:21 10120:10 10121:159 10122:159 10123:105 10124:6 10127:1 10128:14 10129:149 10130:43 10136:5 10137:2 10145:6 10146:45 10147:159 10148:82 10149:3 10153:78 10154:93 10155:152 10156:101 10157:11 10160:1 10161:111 10162:37 10163:2 10164:1 10168:6 10169:1 10177:5 10178:4 10179:1 10180:7 10181:3 10185:12 10186:2 10187:2 10188:33 10189:15 10192:1 10193:32 10194:1 10196:1 10200:6 10241:172 10242:172 10243:172 10244:56 10246:1 10247:12 10248:17 10249:172 10250:158 10251:18 10252:1 10256:17 10257:50 10258:13 10273:16 10274:68 10275:172 10276:149 10277:12 10281:172 10282:113 10283:49 10284:42 10285:5 10288:8 10289:42 10290:8 10296:3 10306:1 10307:2 10308:32 10309:16 10313:47 10314:5 10315:2 10316:19 10317:8 10320:8 10321:16 10328:3 
3.208199280719065e-07 61:49 62:82 63:2 93:8 94:206 117:15 118:14 125:8 126:8 127:1 181:2 182:1 189:45 190:149 191:40 213:17 214:7 221:235 222:235 223:28 245:66 246:87 249:5 250:4 252:1 253:235 254:235 255:4 256:2 309:12 310:21 317:24 318:142 319:124 320:7 341:128 342:52 345:6 346:8 347:1 348:1 349:176 350:176 351:129 352:26 365:3 366:3 373:167 374:176 377:38 378:56 379:3 380:4 381:176 382:176 383:4 384:5 437:21 438:74 439:21 445:5 446:64 447:146 448:34 461:7 462:3 469:146 470:146 471:15 473:61 474:28 475:1 476:1 477:146 478:146 479:146 480:111 493:27 494:36 497:3 498:2 501:146 502:146 503:2 504:1 505:118 506:144 507:5 508:5 509:136 510:80 511:2 512:6 557:7 558:13 565:15 566:95 567:92 568:6 569:2 574:9 575:117 576:62 589:78 590:32 593:5 594:6 596:1 597:139 598:139 599:97 600:21 601:139 602:39 605:21 606:35 607:130 608:139 613:1 614:1 621:97 622:139 625:29 626:44 627:2 628:3 629:139 630:139 631:3 632:3 633:139 634:139 635:2 636:1 637:16 638:4 640:5 685:15 686:55 687:17 693:4 694:50 695:128 696:33 697:5 703:39 704:55 709:4 710:1 717:128 718:127 719:12 721:61 722:26 723:1 724:1 725:128 726:128 727:128 728:107 729:128 730:27 735:34 736:118 741:16 742:22 745:2 746:1 749:128 750:128 751:1 752:1 753:113 754:128 755:4 756:4 757:106 758:60 759:2 760:5 761:128 762:89 768:2 805:5 806:10 813:13 814:85 815:90 816:6 817:3 822:8 823:126 824:72 825:4 831:6 832:24 837:62 838:25 841:5 842:7 844:1 845:137 846:137 847:97 848:22 849:137 850:45 853:20 854:33 855:137 856:137 857:90 858:10 863:3 864:35 869:74 870:107 873:30 874:46 875:2 876:3 877:137 878:137 879:2 880:3 881:137 882:137 883:2 884:1 885:15 886:4 888:6 889:74 890:24 933:12 934:47 935:16 941:3 942:45 943:126 944:37 945:7 951:44 952:67 960:2 965:126 966:109 967:11 969:70 970:29 971:1 972:1 973:126 974:126 975:126 976:118 977:126 978:33 983:37 984:126 985:11 986:1 992:2 993:2 994:1 997:126 998:126 999:1 1001:123 1002:126 1003:4 1004:4 1005:94 1006:52 1007:2 1008:5 1009:126 1010:104 1016:2 1017:8 1018:1 1061:11 1062:76 1063:89 1064:7 1065:4 1070:8 1071:137 1072:86 1073:6 1079:7 1080:31 1089:6 1090:7 1092:1 1093:139 1094:139 1095:98 1096:24 1097:139 1098:52 1101:19 1102:32 1103:139 1104:139 1105:118 1106:13 1111:3 1112:45 1121:31 1122:48 1123:2 1124:3 1125:139 1126:139 1127:2 1128:3 1129:139 1130:139 1131:2 1132:1 1133:14 1134:4 1136:6 1137:97 1138:30 1182:6 1213:135 1214:82 1215:1 1237:2 1238:2 1245:242 1246:242 1269:31 1270:31 1277:242 1278:242 1279:4 1280:1 1310:12 1311:5 1333:5 1334:1 1341:185 1342:194 1343:34 1365:20 1366:23 1373:197 1374:197 1375:2 1397:115 1398:130 1401:20 1402:3 1405:197 1406:197 1407:11 1408:12 1430:2 1438:12 1439:16 1461:47 1462:29 1469:150 1470:161 1471:146 1472:17 1493:125 1494:99 1497:13 1498:29 1499:2 1500:3 1501:161 1502:161 1503:21 1504:9 1517:8 1518:8 1525:161 1526:161 1527:1 1529:81 1530:40 1531:1 1532:1 1533:146 1534:161 1535:12 1536:20 1558:7 1559:3 1566:5 1567:24 1568:2 1581:3 1582:1 1589:114 1590:124 1591:24 1593:13 1597:55 1598:129 1599:147 1600:80 1613:11 1614:12 1621:147 1622:147 1623:1 1625:91 1626:92 1627:4 1628:4 1629:147 1630:108 1631:39 1632:40 1645:59 1646:67 1649:13 1650:2 1653:147 1654:147 1655:7 1656:8 1657:147 1658:99 1659:1 1660:1 1661:34 1662:49 1663:4 1664:16 1678:1 1686:8 1687:13 1695:16 1696:4 1709:31 1710:19 1717:106 1718:134 1719:118 1720:14 1721:41 1722:1 1725:4 1726:22 1727:134 1728:131 1741:81 1742:63 1745:11 1746:25 1747:2 1748:3 1749:134 1750:134 1751:17 1752:8 1753:134 1754:112 1755:2 1756:1 1757:25 1758:16 1759:23 1760:57 1765:4 1766:4 1773:123 1774:134 1775:1 1777:66 1778:33 1779:1 1780:1 1781:99 1782:134 1783:8 1784:15 1785:134 1786:101 1789:2 1792:6 1806:5 1807:3 1814:4 1815:22 1816:2 1823:6 1824:5 1829:2 1837:86 1838:97 1839:20 1841:14 1845:45 1846:108 1847:131 1848:81 1849:57 1850:1 1855:49 1856:108 1861:7 1862:8 1869:131 1870:131 1871:1 1873:94 1874:91 1875:4 1876:4 1877:131 1878:89 1879:36 1880:41 1881:131 1882:72 1887:5 1888:36 1893:37 1894:43 1897:11 1898:2 1901:131 1902:131 1903:5 1904:6 1905:131 1906:96 1907:1 1908:1 1909:27 1910:38 1911:3 1912:14 1913:117 1914:58 1920:1 1926:1 1934:7 1935:13 1943:18 1944:5 1951:1 1952:2 1957:25 1958:16 1965:92 1966:131 1967:118 1968:16 1969:51 1970:1 1973:4 1974:21 1975:131 1976:131 1977:31 1978:1 1983:5 1984:37 1989:65 1990:50 1993:12 1994:26 1995:2 1996:3 1997:131 1998:131 1999:17 2000:8 2001:131 2002:128 2003:2 2004:1 2005:24 2006:16 2007:25 2008:66 2009:93 2010:20 2016:7 2021:92 2022:131 2023:1 2025:66 2026:34 2027:1 2028:1 2029:83 2030:131 2031:7 2032:14 2033:131 2034:114 2037:2 2040:6 2041:43 2042:15 2054:5 2055:2 2062:4 2063:22 2064:2 2071:7 2072:6 2085:72 2086:85 2087:19 2089:17 2093:40 2094:99 2095:129 2096:91 2097:72 2098:2 2103:56 2104:129 2105:4 2112:4 2117:129 2118:122 2119:1 2121:108 2122:99 2123:4 2124:4 2125:129 2126:81 2127:37 2128:45 2129:129 2130:86 2135:5 2136:43 2137:11 2138:2 2145:11 2146:2 2149:110 2150:129 2151:5 2152:5 2153:129 2154:102 2155:1 2156:1 2157:24 2158:32 2159:3 2160:13 2161:129 2162:69 2168:2 2169:4 2170:1 2182:7 2183:13 2191:20 2192:7 2199:1 2200:3 2209:1 2213:85 2214:137 2215:124 2216:18 2217:67 2218:2 2221:4 2222:21 2223:137 2224:137 2225:43 2226:1 2231:7 2232:51 2241:14 2242:29 2243:2 2244:3 2245:137 2246:137 2247:19 2248:10 2249:137 2250:137 2251:2 2252:1 2253:24 2254:16 2255:28 2256:79 2257:127 2258:27 2264:10 2273:69 2274:37 2275:1 2276:1 2277:73 2278:128 2279:6 2280:14 2281:137 2282:136 2285:2 2288:7 2289:59 2290:20 2333:15 2334:24 2365:178 2366:73 2389:7 2390:7 2397:232 2398:232 2421:54 2422:70 2423:2 2425:1 2429:232 2430:232 2431:5 2432:2 2461:19 2462:62 2463:16 2485:8 2486:3 2493:179 2494:163 2495:12 2517:43 2518:57 2521:3 2522:2 2525:179 2526:179 2527:2 2528:1 2541:1 2542:3 2549:172 2550:179 2553:40 2554:3 2557:179 2558:179 2559:12 2560:17 2581:6 2582:11 2589:13 2590:76 2591:65 2592:4 2613:81 2614:33 2617:4 2618:5 2620:1 2621:154 2622:154 2623:72 2624:15 2637:2 2638:2 2645:134 2646:154 2649:32 2650:45 2651:2 2652:3 2653:154 2654:154 2655:4 2656:4 2669:19 2670:25 2677:154 2678:154 2679:2 2681:129 2682:15 2685:83 2686:154 2687:13 2688:37 2709:13 2710:43 2711:12 2717:3 2718:38 2719:99 2720:20 2733:5 2734:2 2741:137 2742:113 2743:9 2745:44 2746:22 2747:1 2748:1 2749:133 2750:117 2751:123 2752:72 2765:25 2766:33 2769:3 2770:2 2773:137 2774:137 2775:2 2776:1 2777:103 2778:123 2779:4 2780:4 2781:107 2782:67 2783:2 2784:5 2790:1 2797:95 2798:101 2801:29 2802:2 2805:137 2806:137 2807:8 2808:12 2809:137 2810:31 2813:4 2814:18 2815:4 2816:37 2829:4 2830:7 2837:10 2838:58 2839:54 2840:3 2841:1 2846:5 2847:70 2848:38 2861:56 2862:22 2865:4 2866:5 2869:128 2870:128 2871:61 2872:14 2873:117 2874:31 2877:15 2878:23 2879:82 2880:114 2885:1 2886:1 2893:87 2894:128 2897:28 2898:40 2899:2 2900:2 2901:128 2902:128 2903:3 2904:3 2905:128 2906:128 2907:1 2908:1 2909:13 2910:3 2912:4 2917:10 2918:13 2925:128 2926:128 2927:1 2929:107 2930:13 2933:55 2934:107 2935:9 2936:29 2937:128 2938:33 2944:23 2957:10 2958:34 2959:10 2965:2 2966:32 2967:94 2968:21 2969:3 2975:24 2976:35 2981:3 2982:1 2989:122 2990:90 2991:8 2993:48 2994:22 2995:1 2996:1 2997:112 2998:101 2999:117 3000:74 3001:122 3002:22 3007:22 3008:80 3013:16 3014:22 3017:2 3018:1 3021:122 3022:122 3023:1 3024:1 3025:105 3026:122 3027:3 3028:3 3029:90 3030:54 3031:2 3032:4 3033:122 3034:81 3040:1 3045:61 3046:65 3049:25 3050:2 3053:122 3054:122 3055:7 3056:10 3057:122 3058:30 3061:3 3062:14 3063:3 3064:34 3065:101 3066:20 3072:8 3077:3 3078:6 3085:8 3086:53 3087:55 3088:4 3089:2 3094:5 3095:77 3096:46 3097:3 3103:3 3104:15 3109:46 3110:19 3113:4 3114:5 3117:126 3118:126 3119:64 3120:16 3121:126 3122:37 3125:15 3126:23 3127:90 3128:126 3129:67 3130:8 3135:1 3136:23 3141:69 3142:103 3145:30 3146:42 3147:2 3148:2 3149:126 3150:126 3151:2 3152:3 3153:126 3154:126 3155:1 3156:1 3157:12 3158:3 3160:4 3161:65 3162:21 3173:123 3174:126 3175:1 3177:107 3178:13 3181:44 3182:88 3183:8 3184:28 3185:126 3186:38 3192:26 3193:34 3194:6 3205:8 3206:31 3207:10 3213:2 3214:30 3215:100 3216:24 3217:5 3223:28 3224:44 3232:1 3237:121 3238:81 3239:7 3241:57 3242:25 3243:1 3244:1 3245:104 3246:97 3247:121 3248:85 3249:121 3250:28 3255:25 3256:99 3257:8 3258:1 3264:1 3265:2 3266:1 3269:121 3270:121 3271:1 3272:1 3273:120 3274:121 3275:4 3276:3 3277:83 3278:49 3279:2 3280:5 3281:121 3282:99 3288:2 3289:7 3290:1 3297:24 3298:1 3301:102 3302:121 3303:6 3304:9 3305:121 3306:33 3309:3 3310:12 3311:3 3312:36 3313:121 3314:25 3320:10 3321:3 3333:8 3334:53 3335:61 3336:5 3337:3 3342:5 3343:94 3344:61 3345:4 3351:5 3352:22 3361:5 3362:7 3364:1 3365:136 3366:136 3367:71 3368:19 3369:136 3370:48 3373:16 3374:25 3375:108 3376:136 3377:98 3378:11 3383:2 3384:33 3393:34 3394:49 3395:2 3396:3 3397:136 3398:136 3399:2 3400:3 3401:136 3402:136 3403:2 3404:1 3405:13 3406:3 3408:5 3409:95 3410:31 3425:117 3426:15 3429:38 3430:79 3431:8 3432:30 3433:136 3434:48 3440:31 3441:49 3442:9 3448:1 3485:50 3486:28 3510:1 3517:157 3518:137 3541:18 3542:19 3549:213 3550:213 3551:2 3566:10 3567:4 3573:65 3574:165 3575:23 3577:3 3578:2 3579:1 3580:2 3581:213 3582:213 3583:3 3584:1 3605:2 3613:94 3614:91 3615:15 3637:12 3638:15 3645:166 3646:166 3647:1 3669:91 3670:103 3673:16 3674:2 3677:166 3678:166 3679:9 3680:10 3693:1 3694:23 3695:9 3701:166 3702:166 3703:6 3705:48 3706:8 3707:2 3708:2 3709:166 3710:166 3711:4 3712:9 3733:28 3734:16 3741:91 3742:131 3743:79 3744:9 3765:87 3766:75 3769:9 3770:22 3771:2 3772:2 3773:150 3774:150 3775:12 3776:5 3789:8 3790:8 3797:150 3798:150 3799:1 3801:77 3802:33 3803:1 3804:1 3805:123 3806:150 3807:11 3808:20 3814:3 3815:1 3821:29 3822:69 3823:8 3825:2 3826:1 3827:1 3828:1 3829:150 3830:150 3831:1 3833:136 3834:12 3835:2 3836:1 3837:62 3838:64 3839:5 3840:26 3853:1 3861:69 3862:69 3863:12 3865:8 3869:34 3870:73 3871:129 3872:46 3885:8 3886:9 3893:132 3894:132 3897:65 3898:69 3899:3 3900:3 3901:132 3902:73 3903:23 3904:25 3917:56 3918:63 3921:13 3922:2 3925:132 3926:132 3927:7 3928:7 3929:132 3930:83 3931:1 3932:1 3933:27 3934:41 3935:4 3936:16 3942:10 3943:4 3949:115 3950:132 3951:3 3953:38 3954:6 3955:2 3956:2 3957:132 3958:132 3959:3 3960:7 3961:132 3962:9 3965:1 3966:4 3967:1 3968:39 3981:20 3982:12 3989:71 3990:106 3991:70 3992:9 3993:28 3997:3 3998:14 3999:92 4000:82 4013:62 4014:52 4017:9 4018:20 4019:1 4020:2 4021:127 4022:127 4023:11 4024:5 4025:127 4026:91 4027:1 4028:1 4029:19 4030:11 4031:15 4032:38 4037:4 4038:4 4045:124 4046:127 4047:1 4049:68 4050:31 4052:1 4053:91 4054:127 4055:9 4056:17 4057:127 4058:93 4061:2 4064:7 4069:16 4070:38 4071:4 4073:1 4077:127 4078:127 4079:1 4081:117 4082:10 4083:1 4084:1 4085:43 4086:44 4087:3 4088:22 4089:127 4090:5 4096:34 4101:1 4109:57 4110:59 4111:11 4113:10 4117:30 4118:66 4119:121 4120:51 4121:38 4122:1 4127:28 4128:66 4133:5 4134:6 4141:121 4142:116 4145:72 4146:74 4147:3 4148:3 4149:121 4150:65 4151:23 4152:27 4153:121 4154:57 4159:3 4160:23 4165:38 4166:43 4169:12 4170:2 4173:121 4174:121 4175:6 4176:7 4177:121 4178:87 4179:1 4180:1 4181:23 4182:35 4183:3 4184:15 4185:112 4186:53 4192:2 4197:77 4198:96 4199:1 4201:34 4202:5 4203:1 4204:1 4205:121 4206:119 4207:3 4208:6 4209:121 4210:9 4214:3 4215:1 4216:39 4217:105 4218:3 4224:16 4229:17 4230:10 4237:64 4238:99 4239:73 4240:10 4241:36 4242:1 4245:3 4246:14 4247:102 4248:99 4249:21 4255:3 4256:23 4261:52 4262:43 4265:10 4266:22 4267:2 4268:2 4269:123 4270:123 4271:11 4272:6 4273:123 4274:108 4275:1 4276:1 4277:19 4278:11 4279:16 4280:45 4281:72 4282:16 4288:5 4293:96 4294:123 4295:1 4297:71 4298:33 4299:1 4300:1 4301:78 4302:123 4303:8 4304:16 4305:123 4306:108 4309:2 4312:8 4313:42 4314:14 4321:1 4325:123 4326:123 4329:117 4330:9 4331:1 4333:34 4334:36 4335:3 4336:22 4337:123 4338:6 4344:40 4345:34 4346:1 4352:2 4357:52 4358:56 4359:12 4361:13 4365:29 4366:67 4367:125 4368:62 4369:53 4370:1 4375:35 4376:87 4377:3 4384:2 4389:125 4390:105 4393:90 4394:88 4395:3 4396:3 4397:124 4398:64 4399:26 4400:32 4401:125 4402:75 4407:3 4408:30 4409:9 4410:1 4417:12 4418:2 4421:115 4422:125 4423:5 4424:6 4425:125 4426:101 4427:1 4428:1 4429:23 4430:32 4431:3 4432:16 4433:125 4434:68 4440:2 4441:5 4442:1 4449:34 4450:5 4451:1 4452:1 4453:100 4454:96 4455:2 4456:6 4457:125 4458:9 4462:2 4463:1 4464:45 4465:125 4466:4 4472:20 4473:2 4485:64 4486:103 4487:83 4488:12 4489:51 4490:1 4493:3 4494:15 4495:126 4496:132 4497:32 4498:1 4503:4 4504:34 4513:12 4514:27 4515:2 4516:2 4517:133 4518:125 4519:13 4520:7 4521:133 4522:133 4523:1 4524:1 4525:20 4526:12 4527:20 4528:59 4529:107 4530:24 4536:7 4545:80 4546:39 4547:1 4548:1 4549:74 4550:133 4551:8 4552:17 4553:133 4554:133 4557:2 4560:9 4561:63 4562:21 4577:129 4578:10 4579:1 4581:30 4582:32 4583:3 4584:25 4585:133 4586:8 4592:51 4593:49 4594:2 4600:3 4637:72 4638:30 4661:4 4662:3 4669:160 4670:189 4693:36 4694:49 4695:1 4697:1 4701:189 4702:189 4703:3 4704:1 4717:8 4718:32 4719:7 4724:6 4725:80 4726:189 4727:44 4729:2 4730:5 4731:33 4732:34 4733:189 4734:189 4735:3 4757:4 4758:2 4765:150 4766:82 4767:5 4789:30 4790:39 4793:2 4794:1 4797:150 4798:150 4799:2 4800:1 4814:3 4821:146 4822:150 4825:34 4826:2 4829:150 4830:150 4831:10 4832:14 4838:2 4845:11 4846:62 4847:18 4851:4 4852:15 4853:150 4854:150 4855:14 4857:33 4858:22 4859:42 4860:15 4861:150 4862:131 4864:1 4885:48 4886:19 4889:2 4890:3 4893:140 4894:117 4895:37 4896:8 4909:2 4910:2 4917:101 4918:140 4921:25 4922:33 4923:2 4924:2 4925:140 4926:140 4927:3 4928:3 4941:19 4942:25 4949:140 4950:140 4951:2 4953:124 4954:13 4957:77 4958:139 4959:12 4960:35 4965:3 4966:12 4967:3 4972:3 4973:40 4974:124 4975:19 4977:1 4978:3 4979:21 4980:20 4981:140 4982:140 4983:1 4985:93 4986:42 4987:29 4988:3 4989:33 4990:20 4992:8 5005:3 5006:1 5013:131 5014:71 5015:5 5017:30 5018:16 5020:1 5021:88 5022:72 5023:70 5024:43 5037:21 5038:28 5041:2 5042:1 5045:131 5046:131 5047:1 5048:1 5049:85 5050:99 5051:3 5052:3 5053:79 5054:53 5055:1 5056:3 5062:1 5069:101 5070:108 5073:32 5074:2 5077:131 5078:131 5079:8 5080:13 5081:131 5082:28 5085:3 5086:17 5087:4 5088:40 5093:5 5094:33 5095:9 5099:3 5100:10 5101:115 5102:131 5103:8 5105:30 5106:20 5107:34 5108:11 5109:117 5110:95 5112:1 5113:131 5114:40 5115:9 5120:21 5133:37 5134:15 5137:2 5138:4 5141:123 5142:101 5143:36 5144:9 5145:80 5146:23 5149:11 5150:15 5151:48 5152:70 5157:1 5158:1 5165:74 5166:112 5169:25 5170:33 5171:2 5172:2 5173:123 5174:123 5175:2 5176:3 5177:123 5178:116 5179:1 5180:1 5181:9 5182:2 5184:2 5189:12 5190:15 5197:123 5198:123 5199:1 5201:115 5202:12 5205:57 5206:106 5207:10 5208:31 5209:123 5210:30 5216:26 5220:2 5221:24 5222:70 5223:10 5225:1 5226:3 5227:16 5228:13 5229:123 5230:123 5233:85 5234:37 5235:24 5236:2 5237:24 5238:14 5240:7 5241:123 5242:21 5243:1 5248:25 5253:2 5254:1 5261:120 5262:61 5263:4 5265:35 5266:17 5268:1 5269:80 5270:67 5271:73 5272:48 5273:96 5274:17 5279:13 5280:51 5285:15 5286:20 5289:2 5290:1 5293:120 5294:120 5295:1 5296:1 5297:94 5298:107 5299:3 5300:3 5301:72 5302:46 5303:1 5304:3 5305:120 5306:69 5312:1 5317:70 5318:74 5321:29 5322:2 5325:120 5326:120 5327:7 5328:11 5329:120 5330:30 5333:3 5334:14 5335:3 5336:40 5337:113 5338:20 5344:10 5347:2 5348:7 5349:77 5350:117 5351:4 5353:28 5354:17 5355:27 5356:8 5357:85 5358:68 5360:1 5361:120 5362:40 5363:8 5368:23 5369:107 5370:7 5376:15 5381:32 5382:13 5385:3 5386:4 5389:122 5390:99 5391:39 5392:10 5393:106 5394:29 5397:11 5398:15 5399:56 5400:88 5401:48 5402:6 5407:1 5408:14 5413:62 5414:94 5417:28 5418:38 5419:2 5420:2 5421:122 5422:122 5423:2 5424:3 5425:122 5426:122 5427:1 5428:1 5429:10 5430:2 5432:3 5433:55 5434:18 5445:122 5446:122 5447:1 5449:122 5450:13 5453:48 5454:93 5455:9 5456:32 5457:122 5458:37 5464:31 5465:38 5466:6 5473:1 5474:2 5475:13 5476:10 5477:107 5478:111 5481:89 5482:38 5483:22 5484:1 5485:20 5486:12 5488:8 5489:122 5490:25 5491:1 5496:31 5497:37 5504:3 5509:113 5510:59 5511:5 5513:45 5514:21 5515:1 5516:1 5517:80 5518:69 5519:83 5520:60 5521:123 5522:23 5527:16 5528:68 5529:6 5536:1 5537:2 5538:1 5541:123 5542:123 5543:1 5544:1 5545:114 5546:123 5547:3 5548:3 5549:72 5550:45 5551:1 5552:4 5553:123 5554:91 5560:1 5561:6 5562:1 5569:30 5570:2 5573:122 5574:123 5575:7 5576:11 5577:123 5578:35 5581:3 5582:13 5583:3 5584:45 5585:123 5586:26 5592:13 5593:3 5601:28 5602:17 5603:25 5604:6 5605:69 5606:54 5608:1 5609:123 5610:44 5611:8 5616:27 5617:123 5618:9 5624:20 5625:2 5633:4 5634:6 5637:136 5638:108 5639:48 5640:13 5641:136 5642:40 5645:13 5646:18 5647:72 5648:123 5649:75 5650:9 5655:1 5656:22 5665:35 5666:47 5667:2 5668:2 5669:136 5670:136 5671:3 5672:3 5673:136 5674:136 5675:1 5676:1 5677:11 5678:3 5680:4 5681:86 5682:28 5697:136 5698:16 5701:45 5702:89 5703:9 5704:37 5705:136 5706:51 5712:41 5713:58 5714:10 5720:1 5729:102 5730:42 5731:22 5732:1 5733:18 5734:11 5736:10 5737:136 5738:32 5739:1 5744:42 5745:57 5746:1 5752:5 5789:75 5790:70 5813:12 5814:12 5821:170 5822:170 5823:1 5838:9 5839:3 5845:51 5846:138 5847:20 5849:2 5850:1 5851:1 5852:2 5853:170 5854:170 5855:2 5869:22 5870:39 5871:4 5876:19 5877:97 5878:170 5879:31 5882:8 5883:81 5884:81 5885:170 5886:170 5887:2 5909:8 5910:10 5917:148 5918:127 5941:75 5942:83 5945:14 5946:2 5949:148 5950:148 5951:7 5952:8 5965:1 5966:25 5967:10 5973:148 5974:148 5975:7 5977:47 5978:8 5979:3 5980:3 5981:148 5982:148 5983:4 5984:8 5989:2 5990:3 5996:1 5997:32 5998:77 5999:14 6003:14 6004:48 6005:137 6006:148 6007:12 6009:12 6010:36 6011:113 6012:33 6013:70 6014:53 6037:58 6038:53 6041:6 6042:15 6043:1 6044:1 6045:140 6046:119 6047:6 6048:3 6061:7 6062:7 6069:140 6070:140 6071:1 6073:69 6074:26 6077:99 6078:140 6079:10 6080:19 6086:4 6087:1 6093:32 6094:81 6095:10 6097:2 6098:1 6099:1 6100:1 6101:140 6102:140 6103:1 6105:140 6106:15 6107:2 6108:1 6109:65 6110:63 6111:4 6112:26 6117:10 6118:18 6119:2 6124:11 6125:55 6126:119 6127:16 6130:6 6131:61 6132:54 6133:125 6134:124 6135:1 6137:37 6138:74 6139:80 6140:4 6141:9 6142:5 6144:1 6157:6 6158:7 6165:131 6166:109 6169:47 6170:54 6171:2 6172:2 6173:101 6174:51 6175:14 6176:15 6189:54 6190:61 6193:13 6194:2 6197:131 6198:131 6199:7 6200:8 6201:131 6202:72 6203:1 6205:22 6206:36 6207:4 6208:16 6214:14 6215:5 6221:131 6222:131 6223:4 6225:45 6226:8 6227:2 6228:2 6229:131 6230:131 6231:3 6232:7 6233:131 6234:12 6237:1 6238:4 6239:1 6240:44 6244:1 6245:17 6246:42 6247:7 6251:11 6252:33 6253:92 6254:128 6255:6 6257:12 6258:33 6259:94 6260:24 6261:52 6262:39 6265:70 6266:81 6267:27 6272:5 6285:47 6286:43 6289:7 6290:17 6291:1 6292:1 6293:127 6294:105 6295:7 6296:3 6297:114 6298:73 6299:1 6300:1 6301:14 6302:7 6303:9 6304:25 6309:5 6310:5 6317:124 6318:127 6319:1 6321:70 6322:28 6325:83 6326:127 6327:9 6328:18 6329:127 6330:84 6333:1 6336:8 6341:21 6342:50 6343:6 6345:1 6346:1 6347:1 6348:1 6349:127 6350:127 6351:1 6353:127 6354:14 6355:2 6356:1 6357:51 6358:50 6359:4 6360:26 6361:127 6362:6 6368:42 6372:7 6373:33 6374:69 6375:9 6378:5 6379:48 6380:38 6381:87 6382:84 6385:37 6386:70 6387:69 6388:3 6389:7 6390:4 6392:1 6393:99 6394:53 6395:5 6400:8 6405:4 6406:5 6413:122 6414:93 6417:56 6418:60 6419:2 6420:2 6421:95 6422:48 6423:15 6424:18 6425:120 6426:46 6431:2 6432:15 6437:39 6438:44 6441:13 6442:2 6445:122 6446:122 6447:6 6448:7 6449:122 6450:80 6451:1 6453:20 6454:32 6455:3 6456:17 6457:108 6458:48 6464:2 6469:96 6470:122 6471:2 6473:43 6474:7 6475:2 6476:2 6477:122 6478:122 6479:3 6480:7 6481:122 6482:12 6486:3 6487:1 6488:48 6489:122 6490:3 6496:20 6499:8 6500:23 6501:62 6502:83 6503:4 6505:11 6506:30 6507:78 6508:18 6509:38 6510:28 6513:77 6514:84 6515:26 6520:6 6521:84 6522:18 6528:7 6533:41 6534:37 6537:8 6538:19 6539:1 6540:2 6541:127 6542:101 6543:8 6544:4 6545:127 6546:91 6547:1 6548:1 6549:15 6550:8 6551:11 6552:31 6553:57 6554:13 6560:3 6565:101 6566:127 6567:1 6569:77 6570:31 6573:75 6574:127 6575:8 6576:18 6577:127 6578:104 6581:1 6584:9 6585:42 6586:14 6593:1 6594:1 6596:1 6597:127 6598:127 6599:1 6601:127 6602:14 6603:1 6604:1 6605:43 6606:43 6607:4 6608:28 6609:127 6610:8 6616:52 6617:44 6618:1 6624:3 6626:5 6627:40 6628:29 6629:65 6630:62 6633:39 6634:73 6635:65 6636:2 6637:6 6638:3 6640:1 6641:127 6642:63 6643:5 6648:11 6649:33 6650:2 6656:2 6661:127 6662:89 6665:74 6666:76 6667:3 6668:3 6669:99 6670:50 6671:18 6672:23 6673:127 6674:63 6679:2 6680:21 6681:7 6682:1 6689:14 6690:2 6693:118 6694:127 6695:6 6696:7 6697:127 6698:98 6699:1 6700:1 6701:20 6702:32 6703:3 6704:19 6705:127 6706:66 6712:3 6713:5 6714:1 6721:45 6722:7 6723:2 6724:2 6725:127 6726:121 6727:3 6728:7 6729:127 6730:13 6734:3 6735:1 6736:58 6737:127 6738:5 6744:27 6745:3 6753:11 6754:30 6755:73 6756:15 6757:31 6758:23 6761:95 6762:97 6763:27 6768:7 6769:119 6770:24 6776:9 6777:3 6785:11 6786:25 6787:2 6788:2 6789:141 6790:108 6791:10 6792:5 6793:141 6794:127 6795:1 6796:1 6797:17 6798:9 6799:14 6800:44 6801:91 6802:21 6808:5 6817:94 6818:40 6819:1 6820:1 6821:77 6822:141 6823:9 6824:21 6825:141 6826:141 6829:2 6832:12 6833:67 6834:22 6849:141 6850:15 6851:1 6852:1 6853:40 6854:41 6855:4 6856:33 6857:141 6858:11 6864:71 6865:69 6866:2 6872:5 6881:46 6882:84 6883:68 6884:2 6885:5 6886:3 6888:2 6889:141 6890:83 6891:6 6896:15 6897:53 6898:3 6904:4 6933:3 6934:2 6941:112 6942:169 6965:33 6966:46 6967:2 6969:1 6973:183 6974:183 6975:2 6976:1 6989:11 6990:38 6991:8 6996:8 6997:91 6998:183 6999:49 7001:2 7002:6 7003:42 7004:43 7005:183 7006:183 7007:4 7021:23 7022:20 7023:1 7028:23 7029:75 7030:84 7031:8 7034:5 7035:79 7036:76 7037:69 7038:42 7061:24 7062:31 7065:2 7066:1 7069:148 7070:148 7071:1 7072:1 7086:3 7087:1 7093:144 7094:148 7097:34 7098:2 7101:148 7102:148 7103:9 7104:13 7109:1 7110:3 7117:16 7118:80 7119:22 7123:6 7124:22 7125:148 7126:148 7127:18 7129:38 7130:29 7131:60 7132:20 7133:148 7134:148 7136:1 7141:2 7142:1 7148:2 7149:32 7150:36 7151:3 7155:15 7156:48 7157:67 7158:56 7159:3 7161:1 7162:23 7163:102 7164:27 7165:17 7166:8 7181:1 7182:1 7189:84 7190:128 7193:22 7194:27 7195:1 7196:1 7197:143 7198:143 7199:3 7200:3 7213:21 7214:28 7215:1 7217:1 7221:143 7222:143 7223:2 7225:130 7226:12 7229:78 7230:134 7231:11 7232:36 7237:5 7238:18 7239:4 7244:5 7245:55 7246:143 7247:26 7249:2 7250:5 7251:32 7252:30 7253:143 7254:143 7255:2 7257:115 7258:60 7259:44 7260:4 7261:39 7262:24 7264:9 7269:10 7270:9 7276:14 7277:42 7278:46 7279:4 7282:4 7283:60 7284:51 7285:45 7286:27 7289:5 7290:51 7291:75 7292:2 7293:1 7309:19 7310:25 7313:2 7314:1 7317:135 7318:135 7319:1 7320:1 7321:72 7322:82 7323:2 7324:2 7325:60 7326:43 7327:1 7328:3 7334:2 7341:110 7342:118 7345:35 7346:2 7349:135 7350:135 7351:8 7352:13 7353:135 7354:26 7357:3 7358:16 7359:4 7360:43 7365:9 7366:46 7367:13 7371:5 7372:16 7373:135 7374:135 7375:11 7377:38 7378:29 7379:53 7380:16 7381:135 7382:120 7384:1 7385:135 7386:60 7387:15 7392:26 7396:1 7397:17 7398:20 7399:2 7403:12 7404:35 7405:46 7406:37 7407:1 7409:1 7410:23 7411:90 7412:21 7413:13 7414:6 7417:16 7418:61 7419:27 7429:1 7430:1 7437:66 7438:102 7441:24 7442:29 7443:1 7444:1 7445:129 7446:129 7447:2 7448:3 7449:118 7450:99 7451:1 7453:7 7454:2 7456:2 7461:14 7462:18 7465:1 7469:129 7470:129 7471:2 7473:129 7474:12 7477:62 7478:111 7479:10 7480:35 7481:129 7482:29 7488:31 7492:3 7493:35 7494:101 7495:14 7497:2 7498:4 7499:26 7500:21 7501:129 7502:129 7503:1 7505:114 7506:58 7507:38 7508:3 7509:31 7510:19 7512:9 7513:129 7514:34 7515:2 7520:33 7524:9 7525:24 7526:26 7527:2 7530:4 7531:47 7532:36 7533:30 7534:18 7537:5 7538:49 7539:66 7540:2 7545:35 7546:44 7547:5 7557:14 7558:19 7561:2 7562:1 7565:125 7566:126 7567:1 7568:1 7569:84 7570:94 7571:2 7572:2 7573:58 7574:40 7575:1 7576:3 7577:109 7578:60 7589:81 7590:86 7593:35 7594:2 7597:126 7598:126 7599:8 7600:13 7601:126 7602:29 7605:3 7606:15 7607:4 7608:47 7609:126 7610:20 7616:12 7619:4 7620:12 7621:108 7622:126 7623:6 7625:37 7626:27 7627:45 7628:12 7629:115 7630:91 7632:1 7633:126 7634:63 7635:14 7640:30 7641:126 7642:11 7648:21 7651:9 7652:25 7653:31 7654:24 7655:1 7657:1 7658:21 7659:77 7660:15 7661:9 7662:4 7665:19 7666:66 7667:26 7673:38 7674:17 7680:1 7685:57 7686:88 7689:27 7690:34 7691:1 7692:2 7693:127 7694:129 7695:2 7696:3 7697:129 7698:126 7699:1 7700:1 7701:8 7702:2 7704:2 7705:48 7706:16 7717:129 7718:129 7719:1 7721:129 7722:14 7725:54 7726:100 7727:10 7728:37 7729:129 7730:38 7736:38 7737:43 7738:7 7744:1 7745:1 7746:4 7747:22 7748:17 7749:129 7750:129 7753:123 7754:60 7755:37 7756:2 7757:27 7758:16 7760:11 7761:129 7762:41 7763:2 7768:42 7769:53 7770:1 7776:5 7778:3 7779:41 7780:28 7781:23 7782:13 7785:5 7786:52 7787:63 7788:1 7793:47 7794:54 7795:5 7801:17 7802:2 7809:3 7810:1 7813:124 7814:136 7815:1 7816:1 7817:111 7818:122 7819:3 7820:2 7821:63 7822:42 7823:1 7824:4 7825:136 7826:86 7832:1 7833:6 7834:1 7841:39 7842:3 7845:136 7846:136 7847:8 7848:14 7849:136 7850:38 7853:3 7854:15 7855:4 7856:57 7857:136 7858:29 7864:17 7865:4 7873:41 7874:28 7875:44 7876:11 7877:101 7878:78 7880:1 7881:136 7882:76 7883:15 7888:39 7889:136 7890:15 7896:30 7897:4 7905:1 7906:22 7907:75 7908:13 7909:8 7910:3 7913:26 7914:81 7915:29 7921:57 7922:24 7928:1 7929:1 7937:36 7938:46 7939:2 7940:2 7941:144 7942:142 7943:3 7944:4 7945:150 7946:150 7947:1 7948:1 7949:10 7950:2 7952:3 7953:81 7954:27 7969:150 7970:18 7973:55 7974:104 7975:11 7976:46 7977:150 7978:56 7984:54 7985:72 7986:11 7992:2 8001:150 8002:73 8003:41 8004:2 8005:27 8006:16 8008:15 8009:150 8010:58 8011:3 8016:62 8017:89 8018:2 8024:9 8033:7 8034:64 8035:70 8036:1 8041:73 8042:77 8043:7 8048:1 8049:29 8050:4 8056:1 8085:10 8086:10 8093:166 8094:166 8095:1 8110:10 8111:4 8117:51 8118:146 8119:22 8121:2 8122:1 8123:1 8124:2 8125:166 8126:166 8127:2 8141:29 8142:47 8143:5 8148:25 8149:121 8150:166 8151:35 8154:9 8155:105 8156:104 8157:166 8158:166 8159:2 8173:6 8174:1 8180:8 8181:16 8182:2 8186:1 8187:21 8188:19 8189:4 8213:68 8214:75 8217:13 8218:1 8221:152 8222:152 8223:7 8224:8 8230:1 8237:1 8238:32 8239:12 8245:152 8246:152 8247:9 8249:52 8250:10 8251:4 8252:3 8253:152 8254:152 8255:3 8256:8 8261:3 8262:4 8268:2 8269:47 8270:104 8271:18 8275:21 8276:70 8277:152 8278:152 8279:15 8281:15 8282:50 8283:152 8284:47 8285:89 8286:67 8300:1 8301:10 8302:2 8307:5 8308:16 8309:10 8314:4 8315:29 8316:6 8333:7 8334:7 8341:141 8342:141 8343:1 8345:64 8346:21 8349:81 8350:141 8351:9 8352:18 8358:5 8359:2 8365:36 8366:96 8367:13 8369:2 8370:1 8371:1 8372:2 8373:141 8374:141 8375:2 8377:141 8378:18 8379:3 8380:2 8381:70 8382:64 8383:4 8384:27 8389:15 8390:25 8391:2 8396:17 8397:78 8398:141 8399:21 8402:9 8403:89 8404:79 8405:141 8406:141 8407:1 8409:46 8410:103 8411:116 8412:6 8413:12 8414:7 8416:1 8421:3 8428:5 8429:10 8430:1 8435:17 8436:14 8437:3 8442:8 8443:20 8461:52 8462:58 8465:13 8466:1 8469:135 8470:135 8471:6 8472:7 8473:131 8474:61 8477:17 8478:31 8479:3 8480:17 8486:18 8487:7 8493:135 8494:135 8495:5 8497:52 8498:10 8499:3 8500:3 8501:135 8502:135 8503:3 8504:8 8505:135 8506:15 8509:1 8510:4 8511:1 8512:49 8516:1 8517:26 8518:59 8519:10 8523:17 8524:51 8525:130 8526:135 8527:9 8529:15 8530:48 8531:135 8532:37 8533:69 8534:51 8537:93 8538:119 8539:42 8544:6 8549:5 8550:1 8555:4 8556:11 8557:6 8562:3 8563:25 8564:4 8570:12 8571:8 8581:5 8582:5 8589:117 8590:130 8591:1 8593:68 8594:24 8597:72 8598:130 8599:8 8600:18 8601:130 8602:71 8605:1 8608:8 8613:25 8614:63 8615:7 8617:2 8618:1 8619:1 8620:1 8621:130 8622:130 8623:1 8625:130 8626:18 8627:2 8628:1 8629:57 8630:54 8631:4 8632:28 8633:130 8634:7 8640:49 8644:11 8645:49 8646:97 8647:12 8650:8 8651:73 8652:59 8653:120 8654:113 8655:1 8657:48 8658:104 8659:106 8660:4 8661:9 8662:5 8664:1 8665:130 8666:79 8667:7 8672:11 8676:3 8677:5 8683:14 8684:10 8685:2 8690:8 8691:18 8697:3 8698:10 8699:1 8709:39 8710:44 8713:13 8714:1 8717:124 8718:126 8719:6 8720:7 8721:126 8722:70 8725:16 8726:28 8727:3 8728:17 8729:101 8730:42 8736:2 8741:115 8742:126 8743:3 8745:51 8746:9 8747:3 8748:2 8749:126 8750:126 8751:3 8752:7 8753:126 8754:15 8757:1 8758:3 8759:1 8760:55 8761:126 8762:4 8768:24 8771:13 8772:36 8773:90 8774:116 8775:5 8777:15 8778:45 8779:123 8780:28 8781:52 8782:38 8785:106 8786:126 8787:41 8792:7 8793:121 8794:29 8800:9 8803:3 8804:8 8805:4 8810:3 8811:22 8812:3 8817:1 8818:13 8819:8 8825:5 8826:4 8837:102 8838:135 8839:1 8841:80 8842:29 8845:70 8846:135 8847:9 8848:20 8849:135 8850:95 8853:1 8856:10 8857:41 8858:13 8865:2 8866:1 8867:1 8868:1 8869:135 8870:135 8871:1 8873:135 8874:19 8875:2 8876:1 8877:52 8878:49 8879:4 8880:32 8881:135 8882:9 8888:65 8889:55 8890:1 8896:4 8898:8 8899:67 8900:48 8901:96 8902:89 8905:55 8906:116 8907:107 8908:4 8909:8 8910:5 8912:2 8913:135 8914:102 8915:9 8920:15 8921:51 8922:4 8928:3 8931:12 8932:8 8933:1 8938:9 8939:19 8945:5 8946:13 8947:1 8953:2 8961:16 8962:2 8965:119 8966:139 8967:6 8968:8 8969:139 8970:93 8971:1 8973:18 8974:30 8975:4 8976:21 8977:139 8978:63 8984:3 8985:4 8986:1 8993:58 8994:10 8995:3 8996:2 8997:139 8998:139 8999:3 9000:8 9001:139 9002:18 9005:1 9006:3 9007:1 9008:73 9009:139 9010:6 9016:36 9017:4 9025:17 9026:50 9027:124 9028:25 9029:46 9030:34 9033:139 9034:139 9035:47 9040:10 9041:139 9042:42 9048:14 9049:4 9058:3 9059:22 9060:3 9065:1 9066:17 9067:9 9073:8 9074:7 9089:104 9090:39 9093:75 9094:148 9095:10 9096:24 9097:157 9098:141 9101:1 9104:15 9105:69 9106:22 9121:157 9122:23 9123:2 9124:1 9125:53 9126:51 9127:4 9128:42 9129:157 9130:14 9136:95 9137:93 9138:3 9144:7 9153:70 9154:143 9155:119 9156:4 9157:8 9158:5 9160:3 9161:157 9162:145 9163:12 9168:23 9169:86 9170:6 9176:6 9186:12 9187:21 9193:8 9194:19 9195:2 9201:5 9202:1 9237:32 9238:45 9239:2 9241:1 9245:188 9246:188 9247:2 9248:1 9261:15 9262:46 9263:9 9268:11 9269:109 9270:188 9271:58 9273:2 9274:7 9275:56 9276:57 9277:188 9278:188 9279:4 9293:31 9294:26 9295:1 9300:32 9301:100 9302:105 9303:10 9306:7 9307:107 9308:103 9309:88 9310:52 9358:3 9359:1 9365:144 9366:153 9369:34 9370:2 9372:1 9373:153 9374:153 9375:8 9376:13 9381:1 9382:4 9389:22 9390:104 9391:28 9395:9 9396:32 9397:153 9398:153 9399:23 9401:44 9402:39 9403:84 9404:28 9405:153 9406:153 9408:1 9413:3 9414:2 9420:3 9421:46 9422:49 9423:4 9427:22 9428:70 9429:93 9430:74 9431:4 9433:1 9434:33 9435:147 9436:38 9437:23 9438:10 9485:22 9486:31 9487:1 9489:1 9493:155 9494:155 9495:2 9496:1 9497:136 9498:11 9501:79 9502:129 9503:11 9504:37 9509:7 9510:25 9511:5 9516:8 9517:74 9518:155 9519:35 9521:2 9522:7 9523:48 9524:45 9525:155 9526:155 9527:3 9529:141 9530:85 9531:66 9532:5 9533:47 9534:29 9536:10 9541:16 9542:14 9548:22 9549:63 9550:65 9551:6 9554:7 9555:91 9556:78 9557:65 9558:37 9561:7 9562:75 9563:115 9564:4 9565:1 9606:2 9613:115 9614:123 9617:37 9618:3 9620:1 9621:141 9622:141 9623:8 9624:13 9625:141 9626:23 9629:3 9630:15 9631:4 9632:45 9637:13 9638:63 9639:17 9643:8 9644:25 9645:141 9646:141 9647:14 9649:46 9650:40 9651:78 9652:23 9653:141 9654:141 9656:1 9657:141 9658:85 9659:22 9664:30 9668:2 9669:27 9670:29 9671:2 9675:18 9676:54 9677:67 9678:52 9679:2 9681:2 9682:33 9683:136 9684:31 9685:18 9686:8 9689:23 9690:90 9691:41 9733:15 9734:21 9737:1 9741:141 9742:141 9743:2 9745:141 9746:12 9749:65 9750:110 9751:10 9752:37 9753:141 9754:27 9760:35 9764:5 9765:49 9766:138 9767:20 9769:2 9770:6 9771:40 9772:33 9773:141 9774:141 9775:1 9777:141 9778:84 9779:60 9780:4 9781:39 9782:23 9784:11 9785:141 9786:52 9787:3 9792:41 9796:15 9797:38 9798:39 9799:3 9802:6 9803:75 9804:57 9805:46 9806:26 9809:7 9810:76 9811:104 9812:3 9813:1 9817:52 9818:69 9819:8 9861:88 9862:94 9865:38 9866:3 9869:135 9870:135 9871:8 9872:13 9873:135 9874:27 9877:3 9878:14 9879:4 9880:51 9881:134 9882:18 9888:14 9891:6 9892:18 9893:135 9894:135 9895:9 9897:47 9898:39 9899:70 9900:19 9901:135 9902:115 9904:1 9905:135 9906:94 9907:22 9912:36 9913:135 9914:17 9920:26 9923:15 9924:39 9925:47 9926:35 9927:1 9929:2 9930:32 9931:122 9932:24 9933:14 9934:6 9937:29 9938:102 9939:42 9945:57 9946:28 9952:1 9985:1 9989:144 9990:144 9991:2 9993:144 9994:14 9997:60 9998:104 9999:10 10000:42 10001:144 10002:37 10008:45 10009:48 10010:7 10016:1 10017:2 10018:6 10019:37 10020:27 10021:144 10022:144 10023:1 10025:144 10026:93 10027:60 10028:4 10029:35 10030:21 10032:14 10033:144 10034:66 10035:4 10040:55 10041:76 10042:2 10048:7 10050:6 10051:68 10052:46 10053:36 10054:19 10057:8 10058:85 10059:105 10060:2 10061:1 10065:74 10066:89 10067:9 10072:1 10073:27 10074:4 10113:45 10114:3 10117:152 10118:152 10119:9 10120:15 10121:152 10122:37 10125:3 10126:15 10127:4 10128:68 10129:152 10130:29 10136:21 10137:4 10145:56 10146:44 10147:73 10148:17 10149:137 10150:106 10152:1 10153:152 10154:121 10155:26 10160:51 10161:152 10162:26 10168:41 10169:6 10177:2 10178:37 10179:126 10180:22 10181:12 10182:5 10185:41 10186:134 10187:50 10193:92 10194:41 10200:2 10201:3 10241:169 10242:19 10245:62 10246:111 10247:12 10248:53 10249:169 10250:55 10256:66 10257:82 10258:12 10264:2 10273:169 10274:116 10275:68 10276:4 10277:35 10278:21 10280:19 10281:169 10282:94 10283:6 10288:84 10289:129 10290:3 10296:13 10305:11 10306:107 10307:119 10308:2 10309:1 10313:118 10314:129 10315:13 10320:2 10321:47 10322:7 10328:1 
1.132897509091449e-07 45:1 46:41 47:12 49:5 50:1 53:7 54:128 55:65 56:4 57:79 58:28 59:8 60:13 61:4 62:53 63:33 64:18 77:13 78:128 79:73 81:36 82:28 83:1 84:1 85:79 86:128 87:79 88:21 89:128 90:76 91:2 92:4 93:25 94:128 95:128 96:42 105:18 106:2 110:40 111:109 112:59 113:48 114:92 115:30 116:17 117:22 118:93 119:76 120:51 121:16 122:23 123:23 124:128 125:128 126:128 127:128 128:28 166:3 167:1 173:5 174:101 175:28 177:41 178:12 181:2 182:121 183:58 184:14 185:43 186:22 187:14 188:64 189:26 190:32 191:7 192:7 198:14 199:17 201:1 205:47 206:127 207:73 208:2 209:117 210:70 211:1 212:1 213:34 214:127 215:88 216:42 217:69 218:27 219:3 220:18 221:62 222:127 223:127 224:16 225:1 230:3 231:24 232:13 233:31 234:32 235:7 237:2 238:73 239:101 240:54 241:32 242:68 243:32 244:77 245:98 246:96 247:71 248:34 249:4 250:1 251:19 252:89 253:89 254:127 255:127 256:21 293:1 294:23 295:7 297:4 298:1 301:4 302:121 303:43 304:3 305:65 306:24 307:7 308:12 309:4 310:40 311:24 312:14 313:5 314:6 315:7 316:116 317:63 318:41 319:3 325:8 326:73 327:39 329:27 330:21 333:50 334:121 335:50 336:15 337:121 338:60 339:2 340:3 341:22 342:121 343:121 344:33 345:10 346:4 347:4 348:40 349:108 350:121 351:83 352:8 353:10 354:1 358:23 359:58 360:32 361:31 362:61 363:20 364:13 365:17 366:58 367:46 368:32 369:11 370:16 371:19 372:113 373:121 374:121 375:121 376:22 377:53 378:6 379:14 380:26 381:19 382:89 383:121 384:36 421:3 422:63 423:17 425:34 426:10 429:1 430:84 431:42 432:11 433:36 434:20 435:13 436:68 437:28 438:32 439:6 440:6 441:2 443:2 444:104 445:73 446:33 447:6 448:7 453:29 454:123 455:42 456:1 457:93 458:54 459:1 461:23 462:102 463:69 464:32 465:58 466:22 467:3 468:19 469:63 470:123 471:123 472:14 473:16 474:12 475:37 476:58 477:123 478:123 479:39 480:17 481:19 482:21 483:5 485:1 486:44 487:57 488:30 489:23 490:47 491:23 492:63 493:80 494:75 495:57 496:25 497:4 498:1 499:18 500:79 501:77 502:123 503:123 504:21 505:123 506:18 507:24 508:12 509:9 510:38 511:52 512:63 545:3 546:1 549:3 550:81 551:29 552:2 553:55 554:21 555:6 556:12 557:4 558:31 559:18 560:11 561:4 562:5 563:6 564:117 565:70 566:44 567:4 569:6 571:1 572:36 573:35 574:17 575:13 576:26 577:20 578:15 581:32 582:117 583:32 584:11 585:105 586:48 587:2 588:3 589:20 590:117 591:111 592:26 593:10 594:4 595:5 596:45 597:117 598:117 599:84 600:9 601:32 602:27 603:82 604:53 605:83 606:47 607:20 608:31 609:20 610:41 611:14 612:10 613:13 614:37 615:28 616:20 617:8 618:11 619:15 620:95 621:112 622:113 623:117 624:18 625:66 626:7 627:14 628:25 629:19 630:91 631:117 632:41 633:117 634:24 635:48 636:32 637:51 638:11 639:11 640:49 673:29 674:9 677:1 678:59 679:31 680:9 681:31 682:18 683:12 684:72 685:30 686:33 687:6 688:5 689:3 691:2 692:121 693:87 694:39 695:8 696:10 697:8 700:2 701:6 702:8 703:15 704:35 705:75 706:43 709:15 710:74 711:56 712:25 713:49 714:19 715:3 716:20 717:65 718:125 719:125 720:12 721:21 722:16 723:52 724:72 725:125 726:125 727:45 728:23 729:43 730:28 731:68 732:39 733:32 734:12 735:12 736:38 737:16 738:33 739:17 740:52 741:66 742:60 743:47 744:18 745:4 746:2 747:18 748:70 749:67 750:125 751:125 752:21 753:125 754:24 755:33 756:16 757:11 758:42 759:58 760:78 761:48 762:14 763:41 764:56 765:125 766:18 767:3 768:16 801:45 802:18 803:6 804:12 805:3 806:24 807:14 808:9 809:3 810:5 811:6 812:120 813:78 814:46 815:4 817:9 819:2 820:42 821:43 822:22 823:19 824:37 825:4 830:3 831:6 832:14 833:85 834:38 835:1 836:3 837:19 838:109 839:96 840:21 841:11 842:4 843:6 844:51 845:120 846:120 847:84 848:10 849:45 850:38 851:113 852:71 853:104 854:58 855:27 856:44 857:23 858:9 859:14 860:14 861:13 862:3 863:4 864:18 865:6 866:8 867:13 868:79 869:92 870:96 871:120 872:14 873:81 874:9 875:15 876:24 877:18 878:92 879:120 880:47 881:120 882:32 883:66 884:47 885:79 886:16 887:13 888:63 890:1 891:9 892:31 893:111 894:11 895:1 929:26 930:15 931:11 932:73 933:31 934:32 935:5 936:4 937:4 939:3 940:131 941:100 942:44 943:11 944:14 945:12 948:2 949:7 950:11 951:21 952:50 958:1 959:1 961:39 962:15 963:3 964:21 965:64 966:131 967:117 968:10 969:27 970:22 971:69 972:86 973:131 974:131 975:50 976:29 977:64 978:40 979:93 980:56 981:45 982:16 983:17 984:55 985:2 989:4 990:1 991:1 992:1 993:4 994:2 995:16 996:60 997:56 998:116 999:131 1000:20 1001:131 1002:30 1003:43 1004:20 1005:13 1006:44 1007:61 1008:94 1009:62 1010:19 1011:56 1012:82 1013:131 1014:27 1015:4 1016:21 1020:3 1021:29 1022:1 1057:3 1058:4 1059:6 1060:128 1061:88 1062:50 1063:4 1065:14 1066:1 1067:2 1068:51 1069:53 1070:29 1071:27 1072:55 1073:6 1078:5 1079:10 1080:21 1089:12 1090:5 1091:8 1092:58 1093:128 1094:128 1095:87 1096:11 1097:65 1098:54 1099:128 1100:95 1101:128 1102:72 1103:35 1104:64 1105:36 1106:14 1107:21 1108:22 1109:22 1110:5 1111:7 1112:28 1121:101 1122:11 1123:16 1124:24 1125:18 1126:95 1127:128 1128:55 1129:128 1130:44 1131:93 1132:70 1133:124 1134:24 1135:16 1136:81 1138:2 1139:13 1140:48 1141:128 1142:17 1143:2 1144:1 1166:3 1167:2 1174:27 1175:12 1177:7 1178:4 1179:2 1180:3 1182:9 1183:6 1184:2 1197:7 1198:83 1199:24 1201:17 1202:13 1205:40 1206:128 1207:67 1208:6 1209:128 1210:54 1211:5 1212:9 1213:11 1214:80 1215:43 1216:25 1229:5 1230:81 1231:110 1232:10 1233:29 1234:35 1235:9 1236:5 1237:41 1238:128 1239:84 1240:35 1241:57 1242:34 1243:6 1244:35 1245:70 1246:128 1247:128 1248:41 1257:59 1258:4 1262:7 1263:41 1264:115 1265:105 1266:108 1267:31 1268:17 1269:18 1270:45 1271:43 1272:88 1273:3 1274:21 1275:26 1276:128 1277:128 1278:128 1279:56 1280:6 1294:11 1295:5 1297:3 1298:1 1302:21 1303:10 1304:1 1305:4 1306:4 1307:3 1308:16 1309:3 1311:1 1312:1 1318:8 1319:5 1325:24 1326:121 1327:34 1329:81 1330:38 1331:1 1333:15 1334:121 1335:60 1336:19 1337:67 1338:27 1339:9 1340:44 1341:43 1342:113 1343:21 1344:10 1350:8 1351:24 1352:2 1353:3 1354:7 1355:2 1357:19 1358:121 1359:102 1360:12 1361:58 1362:46 1363:9 1364:22 1365:49 1366:104 1367:95 1368:48 1369:17 1370:7 1371:4 1372:20 1373:55 1374:121 1375:121 1376:19 1377:6 1383:9 1384:23 1385:94 1386:40 1387:7 1390:14 1391:37 1392:114 1393:29 1394:70 1395:33 1396:83 1397:91 1398:102 1399:37 1400:19 1401:2 1402:1 1403:22 1404:110 1405:85 1406:121 1407:87 1408:10 1414:2 1415:1 1422:18 1423:8 1425:6 1426:4 1427:2 1428:3 1430:7 1431:4 1432:2 1434:1 1435:2 1436:32 1437:7 1445:4 1446:49 1447:13 1449:14 1450:10 1453:26 1454:121 1455:47 1456:5 1457:118 1458:46 1459:5 1460:9 1461:11 1462:70 1463:35 1464:21 1465:7 1466:5 1467:5 1468:89 1469:102 1470:121 1471:17 1472:1 1477:3 1478:48 1479:62 1480:5 1481:22 1482:26 1483:6 1484:4 1485:28 1486:105 1487:54 1488:26 1489:47 1490:27 1491:5 1492:31 1493:61 1494:121 1495:121 1496:34 1497:27 1498:4 1499:6 1500:9 1501:44 1502:121 1503:121 1504:24 1505:35 1506:2 1510:4 1511:23 1512:65 1513:67 1514:75 1515:22 1516:14 1517:14 1518:33 1519:29 1520:54 1521:2 1522:15 1523:22 1524:121 1525:121 1526:121 1527:51 1528:5 1529:47 1530:6 1531:16 1532:38 1533:15 1534:61 1535:91 1536:41 1542:7 1543:3 1545:2 1546:1 1550:15 1551:7 1552:1 1553:3 1554:4 1555:3 1556:18 1557:3 1564:27 1565:6 1568:1 1573:15 1574:103 1575:21 1577:68 1578:31 1581:10 1582:95 1583:45 1584:15 1585:58 1586:24 1587:9 1588:47 1589:47 1590:117 1591:20 1592:9 1593:2 1594:2 1595:8 1596:84 1597:117 1598:93 1599:16 1600:9 1601:2 1602:5 1603:1 1605:12 1606:83 1607:59 1608:7 1609:45 1610:35 1611:7 1612:18 1613:38 1614:81 1615:79 1616:37 1617:15 1618:6 1619:4 1620:18 1621:53 1622:117 1623:117 1624:18 1625:73 1626:19 1627:43 1628:20 1629:40 1630:85 1631:52 1632:36 1633:57 1634:27 1635:5 1638:9 1639:22 1640:66 1641:20 1642:49 1643:24 1644:69 1645:77 1646:84 1647:28 1648:13 1649:2 1650:1 1651:22 1652:101 1653:75 1654:117 1655:88 1656:10 1657:117 1658:9 1659:5 1660:7 1661:4 1662:19 1663:46 1664:95 1670:12 1671:5 1673:5 1674:3 1675:1 1676:3 1678:5 1679:3 1680:1 1682:1 1683:2 1684:34 1685:8 1689:1 1692:9 1693:2 1695:1 1696:3 1697:10 1698:7 1701:16 1702:111 1703:31 1704:4 1705:96 1706:37 1707:5 1708:9 1709:10 1710:58 1711:27 1712:16 1713:6 1714:4 1715:5 1716:96 1717:112 1718:115 1719:18 1720:1 1721:14 1722:6 1723:18 1724:38 1725:70 1726:39 1727:20 1728:34 1729:16 1730:18 1731:4 1732:3 1733:18 1734:64 1735:33 1736:18 1737:36 1738:20 1739:4 1740:25 1741:50 1742:115 1743:115 1744:26 1745:32 1746:5 1747:7 1748:10 1749:46 1750:115 1751:115 1752:27 1753:76 1754:34 1755:96 1756:49 1757:47 1758:17 1759:11 1760:25 1761:40 1762:49 1763:15 1764:11 1765:11 1766:23 1767:18 1768:32 1769:1 1770:10 1771:18 1772:115 1773:113 1774:115 1775:44 1776:4 1777:57 1778:6 1779:16 1780:35 1781:14 1782:59 1783:92 1784:48 1785:115 1786:7 1787:2 1788:7 1789:40 1790:25 1791:17 1792:96 1793:2 1794:1 1798:10 1799:5 1800:1 1801:3 1802:3 1803:3 1804:19 1805:4 1812:31 1813:7 1816:1 1823:2 1824:4 1825:56 1826:25 1829:6 1830:66 1831:33 1832:12 1833:49 1834:20 1835:8 1836:50 1837:49 1838:118 1839:19 1840:7 1841:4 1842:2 1843:12 1844:99 1845:118 1846:107 1847:19 1848:13 1849:24 1850:8 1851:13 1852:7 1853:13 1854:12 1855:17 1856:46 1857:35 1858:26 1859:5 1860:14 1861:30 1862:63 1863:65 1864:27 1865:12 1866:5 1867:4 1868:15 1869:49 1870:118 1871:118 1872:17 1873:93 1874:26 1875:59 1876:28 1877:48 1878:93 1879:58 1880:44 1881:37 1882:25 1883:78 1884:65 1885:75 1886:5 1887:2 1888:9 1889:13 1890:34 1891:17 1892:57 1893:63 1894:67 1895:21 1896:8 1897:3 1898:2 1899:21 1900:91 1901:65 1902:110 1903:87 1904:11 1905:118 1906:11 1907:6 1908:7 1909:5 1910:21 1911:52 1912:118 1913:39 1914:2 1915:2 1916:13 1917:107 1918:53 1919:11 1920:38 1921:4 1922:3 1923:1 1924:3 1926:3 1927:2 1928:1 1930:1 1931:1 1932:36 1933:9 1937:1 1940:11 1941:2 1943:1 1944:5 1951:1 1952:1 1953:77 1954:30 1955:4 1956:8 1957:10 1958:50 1959:21 1960:13 1961:5 1962:4 1963:5 1964:103 1965:115 1966:115 1967:18 1968:1 1969:20 1970:9 1971:24 1972:45 1973:84 1974:48 1975:27 1976:48 1977:14 1978:3 1979:2 1982:2 1983:6 1984:20 1985:28 1986:15 1987:3 1988:20 1989:42 1990:115 1991:115 1992:20 1993:39 1994:6 1995:8 1996:11 1997:48 1998:115 1999:115 2000:30 2001:96 2002:46 2003:115 2004:68 2005:66 2006:20 2007:13 2008:31 2009:8 2010:5 2011:17 2012:32 2013:59 2014:4 2015:1 2016:3 2017:1 2018:7 2019:15 2020:95 2021:92 2022:101 2023:38 2024:3 2025:68 2026:7 2027:15 2028:33 2029:13 2030:57 2031:94 2032:56 2033:115 2034:9 2035:3 2036:10 2037:61 2038:38 2039:22 2040:115 2044:8 2045:89 2046:34 2047:4 2048:1 2049:2 2050:3 2051:3 2052:18 2053:4 2057:1 2059:1 2060:34 2061:8 2064:2 2065:1 2070:1 2071:3 2072:6 2081:39 2082:17 2083:7 2084:49 2085:48 2086:112 2087:17 2088:6 2089:5 2090:3 2091:15 2092:109 2093:120 2094:116 2095:23 2096:17 2097:35 2098:11 2099:18 2100:8 2101:16 2102:15 2103:24 2104:65 2105:1 2110:1 2111:1 2112:1 2113:10 2114:4 2115:4 2116:13 2117:44 2118:120 2119:120 2120:15 2121:111 2122:33 2123:76 2124:35 2125:55 2126:97 2127:60 2128:50 2129:49 2130:34 2131:105 2132:92 2133:111 2134:8 2135:2 2136:12 2137:1 2140:2 2141:15 2142:1 2145:3 2146:2 2147:19 2148:76 2149:52 2150:95 2151:82 2152:11 2153:120 2154:12 2155:6 2156:8 2157:6 2158:23 2159:55 2160:120 2161:49 2162:3 2163:3 2164:20 2165:120 2166:77 2167:15 2168:48 2172:1 2173:22 2174:5 2178:1 2179:1 2180:40 2181:9 2185:2 2188:13 2189:3 2191:2 2192:7 2198:1 2199:2 2200:2 2209:5 2210:3 2211:5 2212:113 2213:120 2214:120 2215:19 2216:1 2217:30 2218:13 2219:33 2220:55 2221:104 2222:60 2223:38 2224:70 2225:21 2226:5 2227:4 2230:3 2231:9 2232:31 2241:48 2242:7 2243:10 2244:12 2245:52 2246:120 2247:120 2248:35 2249:120 2250:63 2251:120 2252:98 2253:94 2254:25 2255:16 2256:39 2257:13 2258:8 2259:25 2260:50 2261:94 2262:6 2263:2 2264:5 2273:84 2274:8 2275:15 2276:31 2277:12 2278:56 2279:97 2280:67 2281:120 2282:11 2283:5 2284:16 2285:96 2286:57 2287:29 2288:120 2292:13 2293:120 2294:54 2295:6 2296:2 2317:1 2318:23 2319:6 2321:3 2322:1 2325:4 2326:102 2327:35 2328:2 2329:44 2330:15 2331:4 2332:6 2333:2 2334:28 2335:17 2336:9 2349:8 2350:81 2351:50 2353:23 2354:17 2357:50 2358:120 2359:50 2360:14 2361:97 2362:47 2363:1 2364:2 2365:16 2366:103 2367:105 2368:27 2377:17 2378:2 2382:30 2383:85 2384:54 2385:42 2386:80 2387:26 2388:15 2389:18 2390:70 2391:58 2392:43 2393:11 2394:20 2395:20 2396:118 2397:120 2398:120 2399:120 2400:21 2409:86 2410:2 2415:8 2416:106 2417:120 2418:41 2419:10 2420:5 2421:7 2422:79 2423:78 2424:113 2425:1 2426:7 2427:9 2428:56 2429:92 2430:120 2431:58 2432:2 2438:2 2439:1 2445:3 2446:58 2447:15 2449:24 2450:7 2453:1 2454:68 2455:33 2456:8 2457:25 2458:12 2459:7 2460:35 2461:15 2462:20 2463:4 2464:4 2470:9 2471:12 2477:31 2478:123 2479:52 2480:1 2481:76 2482:45 2483:1 2485:23 2486:94 2487:61 2488:29 2489:43 2490:17 2491:2 2492:10 2493:41 2494:123 2495:110 2496:11 2497:1 2502:2 2503:20 2504:12 2505:31 2506:30 2507:6 2509:1 2510:57 2511:82 2512:51 2513:27 2514:61 2515:29 2516:71 2517:87 2518:78 2519:55 2520:27 2521:3 2522:1 2523:17 2524:83 2525:78 2526:116 2527:123 2528:17 2529:10 2535:1 2536:20 2537:123 2538:17 2539:2 2542:10 2543:27 2544:123 2545:32 2546:26 2547:11 2548:30 2549:50 2550:123 2551:81 2552:28 2553:1 2555:8 2556:45 2557:63 2558:123 2559:88 2560:8 2566:14 2567:4 2569:2 2573:3 2574:72 2575:25 2576:2 2577:39 2578:14 2579:4 2580:7 2581:2 2582:23 2583:14 2584:8 2585:3 2586:3 2587:4 2588:65 2589:37 2590:26 2591:2 2597:5 2598:49 2599:29 2601:19 2602:14 2605:34 2606:117 2607:34 2608:11 2609:84 2610:40 2611:1 2612:2 2613:16 2614:97 2615:97 2616:23 2617:7 2618:2 2619:3 2620:24 2621:71 2622:117 2623:63 2624:6 2625:10 2626:1 2630:18 2631:49 2632:31 2633:29 2634:58 2635:19 2636:12 2637:15 2638:47 2639:38 2640:28 2641:9 2642:15 2643:18 2644:107 2645:117 2646:112 2647:117 2648:18 2649:48 2650:5 2651:13 2652:25 2653:16 2654:73 2655:117 2656:32 2657:52 2658:1 2663:5 2664:63 2665:85 2666:29 2667:7 2668:4 2669:6 2670:62 2671:57 2672:73 2674:5 2675:8 2676:51 2677:84 2678:117 2679:51 2680:1 2681:24 2682:2 2683:6 2684:16 2685:14 2686:103 2687:117 2688:62 2693:2 2694:37 2695:10 2697:20 2698:6 2701:1 2702:49 2703:24 2704:6 2705:22 2706:11 2707:7 2708:38 2709:16 2710:20 2711:4 2712:3 2713:1 2715:1 2716:59 2717:44 2718:21 2719:4 2720:4 2725:20 2726:93 2727:30 2728:1 2729:62 2730:36 2733:16 2734:69 2735:49 2736:23 2737:37 2738:14 2739:2 2740:11 2741:43 2742:120 2743:105 2744:10 2745:12 2746:9 2747:27 2748:37 2749:87 2750:104 2751:28 2752:13 2753:19 2754:20 2755:4 2757:1 2758:35 2759:47 2760:30 2761:19 2762:43 2763:21 2764:59 2765:73 2766:63 2767:46 2768:20 2769:3 2770:1 2771:17 2772:75 2773:69 2774:111 2775:120 2776:18 2777:120 2778:15 2779:19 2780:10 2781:7 2782:31 2783:44 2784:57 2785:84 2786:11 2787:1 2790:7 2791:18 2792:80 2793:21 2794:18 2795:8 2796:25 2797:42 2798:120 2799:60 2800:19 2801:1 2803:8 2804:42 2805:56 2806:120 2807:93 2808:10 2809:69 2810:2 2811:1 2812:2 2813:1 2814:22 2815:78 2816:120 2817:2 2821:2 2822:49 2823:17 2824:1 2825:34 2826:12 2827:4 2828:7 2829:2 2830:18 2831:11 2832:7 2833:2 2834:3 2835:4 2836:73 2837:43 2838:28 2839:2 2841:4 2843:1 2844:21 2845:22 2846:11 2847:8 2848:15 2849:15 2850:11 2853:22 2854:80 2855:23 2856:8 2857:70 2858:32 2859:1 2860:2 2861:15 2862:89 2863:87 2864:19 2865:7 2866:3 2867:4 2868:28 2869:81 2870:117 2871:65 2872:7 2873:23 2874:21 2875:62 2876:38 2877:56 2878:31 2879:14 2880:21 2881:19 2882:40 2883:13 2884:10 2885:12 2886:31 2887:24 2888:19 2889:7 2890:11 2891:15 2892:92 2893:105 2894:98 2895:117 2896:15 2897:62 2898:7 2899:14 2900:25 2901:16 2902:76 2903:117 2904:37 2905:117 2906:20 2907:38 2908:26 2909:47 2910:11 2911:10 2912:47 2913:53 2914:20 2915:5 2916:3 2917:4 2918:47 2919:41 2920:46 2922:3 2923:6 2924:45 2925:73 2926:117 2927:44 2928:1 2929:30 2930:2 2931:6 2932:15 2933:13 2934:102 2935:117 2936:76 2937:68 2938:1 2941:15 2942:39 2943:29 2944:117 2945:17 2946:5 2950:33 2951:17 2952:5 2953:18 2954:10 2955:6 2956:39 2957:17 2958:20 2959:3 2960:2 2961:1 2963:1 2964:67 2965:51 2966:24 2967:5 2968:6 2969:5 2972:1 2973:3 2974:4 2975:8 2976:20 2977:49 2978:28 2981:10 2982:49 2983:39 2984:17 2985:30 2986:12 2987:1 2988:11 2989:43 2990:120 2991:97 2992:8 2993:16 2994:12 2995:38 2996:45 2997:103 2998:115 2999:32 3000:16 3001:29 3002:20 3003:49 3004:29 3005:23 3006:7 3007:7 3008:23 3009:13 3010:30 3011:15 3012:48 3013:59 3014:50 3015:37 3016:14 3017:4 3018:1 3019:16 3020:66 3021:59 3022:103 3023:120 3024:17 3025:120 3026:20 3027:25 3028:13 3029:9 3030:33 3031:48 3032:70 3033:42 3034:11 3035:30 3036:45 3037:120 3038:17 3039:3 3040:15 3041:13 3042:12 3043:6 3044:21 3045:35 3046:120 3047:43 3048:12 3049:1 3051:8 3052:37 3053:49 3054:120 3055:94 3056:11 3057:86 3058:3 3059:1 3060:2 3061:2 3062:24 3063:86 3064:120 3065:23 3069:41 3070:89 3071:20 3072:51 3073:27 3074:10 3075:3 3076:7 3077:2 3078:14 3079:8 3080:5 3081:2 3082:2 3083:3 3084:79 3085:47 3086:30 3087:2 3089:5 3091:1 3092:24 3093:26 3094:14 3095:11 3096:22 3097:2 3102:1 3103:3 3104:8 3105:56 3106:25 3107:1 3108:2 3109:13 3110:79 3111:74 3112:15 3113:8 3114:3 3115:4 3116:31 3117:88 3118:118 3119:65 3120:8 3121:33 3122:28 3123:85 3124:51 3125:70 3126:38 3127:17 3128:29 3129:15 3130:6 3131:11 3132:11 3133:11 3134:2 3135:2 3136:11 3137:5 3138:7 3139:12 3140:76 3141:85 3142:82 3143:104 3144:12 3145:74 3146:8 3147:14 3148:23 3149:16 3150:76 3151:118 3152:42 3153:118 3154:27 3155:52 3156:39 3157:71 3158:16 3159:12 3160:60 3162:1 3163:7 3164:25 3165:101 3166:11 3167:1 3170:2 3171:5 3172:38 3173:60 3174:118 3175:36 3177:37 3178:3 3179:6 3180:14 3181:12 3182:97 3183:118 3184:90 3185:85 3186:1 3189:23 3190:59 3191:38 3192:118 3197:35 3198:65 3199:9 3200:2 3201:15 3202:8 3203:6 3204:40 3205:18 3206:20 3207:3 3208:2 3209:2 3211:1 3212:74 3213:58 3214:27 3215:6 3216:8 3217:7 3220:1 3221:4 3222:6 3223:12 3224:29 3233:24 3234:9 3235:1 3236:11 3237:42 3238:124 3239:87 3240:7 3241:20 3242:16 3243:50 3244:54 3245:119 3246:124 3247:35 3248:20 3249:42 3250:28 3251:67 3252:41 3253:32 3254:10 3255:10 3256:33 3257:1 3261:3 3262:1 3264:1 3265:4 3266:1 3267:15 3268:56 3269:49 3270:92 3271:124 3272:16 3273:124 3274:24 3275:32 3276:16 3277:11 3278:35 3279:50 3280:82 3281:54 3282:15 3283:42 3284:65 3285:124 3286:26 3287:4 3288:20 3292:2 3293:25 3294:1 3297:1 3299:7 3300:32 3301:41 3302:124 3303:93 3304:12 3305:105 3306:3 3307:1 3308:2 3309:2 3310:26 3311:93 3312:124 3313:29 3317:63 3318:124 3319:29 3320:66 3325:8 3326:12 3327:1 3329:2 3330:2 3331:3 3332:85 3333:52 3334:31 3335:2 3337:8 3339:1 3340:28 3341:32 3342:18 3343:16 3344:32 3345:3 3350:2 3351:5 3352:12 3361:9 3362:3 3363:5 3364:35 3365:97 3366:121 3367:65 3368:9 3369:46 3370:40 3371:116 3372:67 3373:87 3374:46 3375:23 3376:41 3377:24 3378:10 3379:15 3380:17 3381:17 3382:3 3383:4 3384:17 3393:90 3394:9 3395:14 3396:22 3397:15 3398:77 3399:121 3400:48 3401:121 3402:35 3403:71 3404:57 3405:110 3406:23 3407:14 3408:75 3410:1 3411:10 3412:39 3413:121 3414:17 3415:1 3416:1 3425:44 3426:3 3427:6 3428:14 3429:11 3430:92 3431:121 3432:106 3433:108 3434:1 3437:36 3438:90 3439:50 3440:121 3445:55 3446:100 3447:13 3448:2 3469:4 3470:44 3471:13 3473:9 3474:7 3477:22 3478:122 3479:33 3480:3 3481:72 3482:28 3483:2 3484:4 3485:6 3486:42 3487:22 3488:13 3501:3 3502:50 3503:73 3504:8 3505:18 3506:25 3507:7 3508:4 3509:25 3510:101 3511:56 3512:23 3513:33 3514:20 3515:5 3516:27 3517:50 3518:114 3519:122 3520:26 3529:53 3530:3 3534:5 3535:31 3536:98 3537:93 3538:87 3539:24 3540:14 3541:14 3542:39 3543:36 3544:78 3545:2 3546:17 3547:21 3548:122 3549:122 3550:122 3551:45 3552:5 3561:69 3567:49 3568:83 3569:91 3570:1 3573:2 3574:102 3575:122 3576:96 3577:4 3580:1 3581:116 3582:122 3583:62 3584:7 3590:4 3591:3 3597:14 3598:90 3599:18 3601:45 3602:22 3605:9 3606:71 3607:31 3608:10 3609:36 3610:14 3611:4 3612:21 3613:24 3614:65 3615:12 3616:5 3622:5 3623:16 3624:2 3625:2 3626:6 3627:1 3629:11 3630:88 3631:71 3632:9 3633:36 3634:31 3635:7 3636:17 3637:35 3638:71 3639:65 3640:32 3641:10 3642:4 3643:3 3644:16 3645:38 3646:119 3647:119 3648:13 3649:6 3655:7 3656:20 3657:87 3658:34 3659:6 3662:11 3663:30 3664:104 3665:27 3666:58 3667:27 3668:69 3669:77 3670:95 3671:33 3672:17 3673:2 3674:1 3675:18 3676:93 3677:73 3678:118 3679:72 3680:8 3681:8 3687:6 3688:15 3689:101 3690:1 3694:21 3695:110 3696:103 3697:23 3701:46 3702:119 3703:119 3704:31 3705:5 3706:1 3708:1 3709:98 3710:119 3711:83 3712:12 3717:2 3718:27 3719:7 3721:8 3722:6 3725:15 3726:93 3727:24 3728:2 3729:64 3730:25 3731:2 3732:4 3733:6 3734:38 3735:19 3736:11 3737:4 3738:2 3739:2 3740:44 3741:55 3742:81 3743:10 3749:2 3750:31 3751:43 3752:4 3753:14 3754:19 3755:5 3756:3 3757:18 3758:68 3759:37 3760:18 3761:28 3762:17 3763:4 3764:25 3765:45 3766:107 3767:115 3768:22 3769:20 3770:2 3771:4 3772:6 3773:27 3774:115 3775:109 3776:17 3777:32 3778:2 3782:3 3783:18 3784:58 3785:61 3786:63 3787:18 3788:11 3789:12 3790:30 3791:25 3792:50 3793:2 3794:13 3795:18 3796:115 3797:115 3798:115 3799:42 3800:4 3801:39 3802:5 3803:13 3804:32 3805:13 3806:56 3807:79 3808:37 3809:42 3815:30 3816:49 3817:59 3818:1 3821:2 3822:78 3823:115 3824:64 3825:3 3828:1 3829:108 3830:115 3831:54 3832:5 3833:38 3834:6 3836:1 3837:29 3838:107 3839:115 3840:66 3845:9 3846:59 3847:12 3849:39 3850:18 3853:6 3854:52 3855:24 3856:9 3857:33 3858:13 3859:4 3860:24 3861:26 3862:71 3863:12 3864:5 3865:1 3866:1 3867:5 3868:45 3869:70 3870:55 3871:9 3872:5 3873:1 3874:4 3875:1 3877:7 3878:56 3879:43 3880:5 3881:30 3882:24 3883:6 3884:15 3885:29 3886:58 3887:57 3888:26 3889:9 3890:3 3891:3 3892:15 3893:38 3894:117 3895:117 3896:13 3897:57 3898:14 3899:29 3900:14 3901:25 3902:56 3903:38 3904:27 3905:55 3906:24 3907:4 3910:7 3911:18 3912:63 3913:18 3914:43 3915:21 3916:60 3917:67 3918:81 3919:27 3920:12 3921:2 3922:1 3923:19 3924:89 3925:67 3926:116 3927:77 3928:9 3929:108 3930:7 3931:4 3932:6 3933:3 3934:17 3935:44 3936:91 3937:63 3942:15 3943:73 3944:64 3945:16 3949:42 3950:117 3951:90 3952:22 3953:6 3954:2 3956:2 3957:93 3958:117 3959:91 3960:15 3961:86 3962:9 3965:1 3966:20 3967:72 3968:117 3969:6 3970:4 3973:10 3974:61 3975:16 3976:2 3977:54 3978:21 3979:2 3980:4 3981:6 3982:34 3983:16 3984:9 3985:3 3986:2 3987:2 3988:49 3989:63 3990:88 3991:10 3993:8 3994:4 3995:11 3996:21 3997:40 3998:22 3999:11 4000:18 4001:11 4002:13 4003:3 4004:2 4005:12 4006:44 4007:23 4008:13 4009:23 4010:13 4011:3 4012:21 4013:39 4014:96 4015:112 4016:18 4017:25 4018:3 4019:5 4020:7 4021:30 4022:112 4023:111 4024:20 4025:58 4026:24 4027:65 4028:34 4029:33 4030:11 4031:8 4032:18 4033:38 4034:43 4035:13 4036:9 4037:9 4038:22 4039:17 4040:31 4041:1 4042:9 4043:15 4044:100 4045:100 4046:112 4047:38 4048:3 4049:49 4050:5 4051:14 4052:31 4053:13 4054:56 4055:84 4056:45 4057:101 4058:5 4059:2 4060:5 4061:34 4062:24 4063:17 4064:91 4065:37 4069:1 4070:57 4071:89 4072:40 4073:2 4076:1 4077:96 4078:112 4079:45 4080:4 4081:47 4082:7 4084:1 4085:27 4086:105 4087:112 4088:79 4089:73 4090:5 4093:6 4094:37 4095:24 4096:110 4097:32 4098:15 4101:4 4102:36 4103:18 4104:7 4105:28 4106:11 4107:4 4108:26 4109:28 4110:71 4111:12 4112:4 4113:2 4114:1 4115:7 4116:52 4117:84 4118:63 4119:11 4120:7 4121:14 4122:5 4123:9 4124:4 4125:7 4126:6 4127:9 4128:25 4129:23 4130:18 4131:4 4132:12 4133:23 4134:45 4135:47 4136:19 4137:8 4138:3 4139:3 4140:13 4141:35 4142:116 4143:116 4144:12 4145:73 4146:19 4147:40 4148:19 4149:30 4150:62 4151:42 4152:33 4153:26 4154:17 4155:54 4156:47 4157:58 4158:4 4159:1 4160:6 4161:12 4162:29 4163:15 4164:50 4165:55 4166:65 4167:20 4168:8 4169:3 4170:1 4171:18 4172:80 4173:58 4174:106 4175:77 4176:9 4177:116 4178:9 4179:5 4180:6 4181:4 4182:19 4183:49 4184:115 4185:34 4186:2 4187:1 4188:10 4189:93 4190:51 4191:11 4192:36 4193:11 4197:36 4198:116 4199:63 4200:15 4201:7 4202:2 4204:1 4205:84 4206:116 4207:94 4208:17 4209:108 4210:11 4213:1 4214:22 4215:81 4216:116 4217:23 4221:15 4222:86 4223:18 4224:38 4225:44 4226:17 4227:2 4228:4 4229:6 4230:29 4231:12 4232:7 4233:3 4234:2 4235:3 4236:54 4237:70 4238:91 4239:11 4241:12 4242:6 4243:16 4244:25 4245:48 4246:28 4247:15 4248:27 4249:8 4250:2 4251:1 4254:1 4255:3 4256:11 4257:17 4258:10 4259:3 4260:17 4261:32 4262:83 4263:111 4264:14 4265:31 4266:4 4267:6 4268:8 4269:31 4270:111 4271:109 4272:23 4273:75 4274:33 4275:90 4276:48 4277:47 4278:13 4279:9 4280:23 4281:5 4282:3 4283:12 4284:24 4285:46 4286:2 4288:2 4289:1 4290:6 4291:13 4292:84 4293:81 4294:99 4295:33 4296:3 4297:59 4298:6 4299:13 4300:29 4301:12 4302:55 4303:86 4304:53 4305:111 4306:7 4307:2 4308:8 4309:53 4310:36 4311:22 4312:111 4316:6 4317:77 4318:34 4319:4 4320:1 4321:2 4324:1 4325:82 4326:111 4327:37 4328:2 4329:56 4330:8 4332:1 4333:24 4334:99 4335:111 4336:92 4337:91 4338:6 4341:9 4342:57 4343:32 4344:111 4349:12 4350:62 4351:9 4352:1 4353:22 4354:9 4355:3 4356:26 4357:28 4358:69 4359:11 4360:3 4361:3 4362:2 4363:10 4364:59 4365:97 4366:70 4367:13 4368:10 4369:21 4370:7 4371:12 4372:5 4373:9 4374:9 4375:13 4376:37 4377:1 4385:6 4386:2 4387:3 4388:11 4389:31 4390:118 4391:118 4392:11 4393:89 4394:24 4395:53 4396:24 4397:35 4398:65 4399:44 4400:39 4401:35 4402:24 4403:73 4404:68 4405:88 4406:6 4407:1 4408:8 4412:1 4413:12 4414:1 4417:3 4418:2 4419:17 4420:69 4421:48 4422:94 4423:73 4424:9 4425:118 4426:10 4427:5 4428:7 4429:5 4430:21 4431:53 4432:118 4433:43 4434:2 4435:2 4436:15 4437:118 4438:77 4439:15 4440:47 4445:19 4446:5 4449:8 4450:2 4452:1 4453:72 4454:118 4455:93 4456:18 4457:118 4458:13 4461:1 4462:24 4463:86 4464:118 4465:29 4466:1 4469:24 4470:118 4471:26 4472:50 4477:2 4478:12 4479:1 4481:2 4482:2 4483:3 4484:60 4485:79 4486:97 4487:12 4489:18 4490:8 4491:22 4492:31 4493:60 4494:35 4495:21 4496:39 4497:13 4498:3 4499:2 4502:2 4503:5 4504:17 4513:38 4514:5 4515:7 4516:9 4517:34 4518:113 4519:110 4520:26 4521:97 4522:45 4523:113 4524:70 4525:69 4526:16 4527:11 4528:29 4529:8 4530:5 4531:17 4532:37 4533:74 4534:4 4535:1 4536:3 4545:73 4546:7 4547:13 4548:28 4549:11 4550:54 4551:90 4552:64 4553:113 4554:9 4555:4 4556:12 4557:83 4558:56 4559:29 4560:113 4564:10 4565:113 4566:54 4567:6 4568:2 4577:67 4578:10 4580:1 4581:22 4582:95 4583:113 4584:109 4585:113 4586:7 4589:14 4590:88 4591:43 4592:113 4597:19 4598:98 4599:13 4600:2 4621:4 4622:46 4623:30 4625:13 4626:10 4629:28 4630:101 4631:29 4632:9 4633:52 4634:25 4636:1 4637:9 4638:61 4639:66 4640:16 4649:14 4650:2 4654:19 4655:59 4656:43 4657:33 4658:63 4659:20 4660:11 4661:13 4662:47 4663:40 4664:32 4665:7 4666:15 4667:16 4668:93 4669:106 4670:86 4671:90 4672:14 4681:82 4682:1 4687:8 4688:97 4689:122 4690:33 4691:8 4692:4 4693:6 4694:79 4695:79 4696:106 4697:1 4698:5 4699:7 4700:45 4701:84 4702:129 4703:57 4704:2 4713:25 4719:127 4720:75 4721:49 4725:3 4726:63 4727:129 4728:115 4729:16 4731:1 4732:5 4733:129 4734:129 4735:39 4736:27 4742:5 4743:7 4749:16 4750:83 4751:31 4752:1 4753:42 4754:25 4757:13 4758:52 4759:35 4760:17 4761:22 4762:8 4764:4 4765:22 4766:102 4767:68 4768:6 4769:1 4774:1 4775:14 4776:10 4777:25 4778:23 4779:5 4781:1 4782:36 4783:55 4784:40 4785:18 4786:46 4787:22 4788:53 4789:65 4790:54 4791:36 4792:17 4793:2 4794:1 4795:13 4796:63 4797:58 4798:78 4799:122 4800:12 4801:9 4807:1 4808:17 4809:122 4810:14 4811:1 4814:10 4815:27 4816:120 4817:28 4818:21 4819:9 4820:23 4821:43 4822:122 4823:78 4824:26 4825:1 4827:6 4828:36 4829:56 4830:122 4831:84 4832:8 4833:3 4839:16 4840:15 4841:38 4846:17 4847:122 4848:95 4849:34 4853:71 4854:100 4855:122 4856:69 4857:14 4858:7 4859:4 4860:10 4861:122 4862:122 4863:35 4864:10 4869:3 4870:30 4871:18 4873:11 4874:8 4877:20 4878:72 4879:21 4880:7 4881:48 4882:23 4884:1 4885:10 4886:61 4887:65 4888:14 4889:4 4890:1 4891:1 4892:12 4893:41 4894:110 4895:42 4896:4 4897:9 4898:1 4902:12 4903:36 4904:26 4905:24 4906:48 4907:15 4908:10 4909:12 4910:34 4911:27 4912:23 4913:6 4914:12 4915:15 4916:88 4917:100 4918:83 4919:91 4920:12 4921:38 4922:4 4923:11 4924:21 4925:12 4926:52 4927:89 4928:25 4929:52 4930:1 4935:5 4936:61 4937:84 4938:25 4939:6 4940:3 4941:5 4942:65 